{"learner":{"attributes":{"best_iteration":"99","best_ntree_limit":"100","scikit_learn":"{\"use_label_encoder\": false, \"n_estimators\": 100, \"objective\": \"multi:softprob\", \"max_depth\": 5, \"max_leaves\": null, \"max_bin\": null, \"grow_policy\": null, \"learning_rate\": null, \"verbosity\": null, \"booster\": null, \"tree_method\": null, \"gamma\": null, \"min_child_weight\": null, \"max_delta_step\": null, \"subsample\": null, \"sampling_method\": null, \"colsample_bytree\": null, \"colsample_bylevel\": null, \"colsample_bynode\": null, \"reg_alpha\": null, \"reg_lambda\": null, \"scale_pos_weight\": null, \"base_score\": null, \"missing\": NaN, \"num_parallel_tree\": null, \"random_state\": 42, \"n_jobs\": null, \"monotone_constraints\": null, \"interaction_constraints\": null, \"importance_type\": null, \"gpu_id\": null, \"validate_parameters\": null, \"predictor\": null, \"enable_categorical\": false, \"feature_types\": null, \"max_cat_to_onehot\": null, \"max_cat_threshold\": null, \"eval_metric\": \"logloss\", \"early_stopping_rounds\": null, \"callbacks\": null, \"classes_\": [0, 1, 2], \"n_classes_\": 3, \"_estimator_type\": \"classifier\"}"},"feature_names":["btc_usd","eth_usd","eth_btc","implied_ethbtc","spread","spread_zscore","vol_spread","spread_slope","spread_ewma","spread_kalman"],"feature_types":["float","float","float","float","float","float","float","float","float","float"],"gradient_booster":{"model":{"gbtree_model_param":{"num_parallel_tree":"1","num_trees":"300","size_leaf_vector":"0"},"tree_info":[0,1,2,0,1,2,0,1,2,0,1,2,0,1,2,0,1,2,0,1,2,0,1,2,0,1,2,0,1,2,0,1,2,0,1,2,0,1,2,0,1,2,0,1,2,0,1,2,0,1,2,0,1,2,0,1,2,0,1,2,0,1,2,0,1,2,0,1,2,0,1,2,0,1,2,0,1,2,0,1,2,0,1,2,0,1,2,0,1,2,0,1,2,0,1,2,0,1,2,0,1,2,0,1,2,0,1,2,0,1,2,0,1,2,0,1,2,0,1,2,0,1,2,0,1,2,0,1,2,0,1,2,0,1,2,0,1,2,0,1,2,0,1,2,0,1,2,0,1,2,0,1,2,0,1,2,0,1,2,0,1,2,0,1,2,0,1,2,0,1,2,0,1,2,0,1,2,0,1,2,0,1,2,0,1,2,0,1,2,0,1,2,0,1,2,0,1,2,0,1,2,0,1,2,0,1,2,0,1,2,0,1,2,0,1,2,0,1,2,0,1,2,0,1,2,0,1,2,0,1,2,0,1,2,0,1,2,0,1,2,0,1,2,0,1,2,0,1,2,0,1,2,0,1,2,0,1,2,0,1,2,0,1,2,0,1,2,0,1,2,0,1,2,0,1,2,0,1,2,0,1,2,0,1,2,0,1,2,0,1,2,0,1,2,0,1,2,0,1,2],"trees":[{"base_weights":[1.7101057E-1,1.4208031E0,-6.9552785E-1,1.4713511E0,7.913257E-1,-7.983504E-2,-7.305542E-1,1.4885372E0,1.2977312E0,9.683952E-1,5.54297E-1,1.086368E-1,-2.571075E-1,-5.564797E-1,-7.420937E-1,1.4970238E0,1.4623737E0,1.3523653E0,1.209839E0,1.0399793E0,8.445385E-1,5.1697904E-1,9.133858E-1,2.6885483E-1,1.2006626E-2,4.761314E-1,-2.8371164E-1,4.4267875E-1,-5.6553644E-1,-6.987799E-1,-7.466781E-1,1.4721886E0,1.4339025E0,1.3678421E0,1.2826387E0,1.2325375E0,9.539625E-1,1.1921002E0,1.0128434E0,8.169164E-1,1.0596125E0,7.844408E-1,4.6296898E-1,9.4449496E-1,1.2765953E-1,4.2467678E-1,1.2474892E-1,5.1875395E-1,-1.9354122E-2,1.0531178E0,2.6240534E-1,-3.184542E-1,3.0301806E-1,1.1927711E0,1.4508577E-1,-5.7353085E-1,3.6014402E-1,-7.003887E-1,7.8343946E-1,-7.469073E-1,-1.4117692E-2],"categories":[],"categories_nodes":[],"categories_segments":[],"categories_sizes":[],"default_left":[1,1,1,1,1,1,1,1,1,1,1,1,1,1,1,0,1,1,1,1,1,1,1,1,1,1,1,1,1,1,1,0,0,0,0,0,0,0,0,0,0,0,0,0,0,0,0,0,0,0,0,0,0,0,0,0,0,0,0,0,0],"id":0,"left_children":[1,3,5,7,9,11,13,15,17,19,21,23,25,27,29,-1,31,33,35,37,39,41,43,45,47,49,51,53,55,57,59,-1,-1,-1,-1,-1,-1,-1,-1,-1,-1,-1,-1,-1,-1,-1,-1,-1,-1,-1,-1,-1,-1,-1,-1,-1,-1,-1,-1,-1,-1],"loss_changes":[3.3766488E5,4.0609219E3,3.970711E3,3.5065625E2,3.978335E2,3.3120007E2,3.4953906E2,2.1703125E1,4.9509766E1,4.7279785E1,5.394702E1,7.438729E1,9.978009E1,9.829541E1,3.1929688E1,0E0,5.2617188E0,5.326172E0,2.259375E1,1.2983887E1,1.0985107E1,5.2811157E1,9.192322E0,4.0537918E1,4.7659477E1,2.182481E1,1.0058975E2,2.1677921E1,7.9670166E1,3.7876953E1,2.478125E1,0E0,0E0,0E0,0E0,0E0,0E0,0E0,0E0,0E0,0E0,0E0,0E0,0E0,0E0,0E0,0E0,0E0,0E0,0E0,0E0,0E0,0E0,0E0,0E0,0E0,0E0,0E0,0E0,0E0,0E0],"parents":[2147483647,0,0,1,1,2,2,3,3,4,4,5,5,6,6,7,7,8,8,9,9,10,10,11,11,12,12,13,13,14,14,16,16,17,17,18,18,19,19,20,20,21,21,22,22,23,23,24,24,25,25,26,26,27,27,28,28,29,29,30,30],"right_children":[2,4,6,8,10,12,14,16,18,20,22,24,26,28,30,-1,32,34,36,38,40,42,44,46,48,50,52,54,56,58,60,-1,-1,-1,-1,-1,-1,-1,-1,-1,-1,-1,-1,-1,-1,-1,-1,-1,-1,-1,-1,-1,-1,-1,-1,-1,-1,-1,-1,-1,-1],"split_conditions":[5.9222752E-6,5.7416237E-6,6.1058163E-6,5.5321134E-6,5.8450046E-6,6.0130633E-6,6.3012444E-6,4.9568466E-6,5.662446E-6,5.8070527E-6,1.2877452E0,5.9566228E-6,-1.786201E0,-2.5854137E0,6.5928402E-6,4.4910717E-1,5.3995723E-6,4.4441555E4,3.4982998E3,-1.1122631E-6,1.141053E0,-5.8517257E-6,7.851E-2,6.79435E-2,-9.033389E-6,-1.5308913E-5,1.5239172E0,-2.1043881E-5,2.5212836E0,3.8093262E0,5.388641E0,4.416566E-1,4.3017077E-1,4.1035265E-1,3.847916E-1,3.6976126E-1,2.8618875E-1,3.5763007E-1,3.0385303E-1,2.4507493E-1,3.1788376E-1,2.3533225E-1,1.388907E-1,2.833485E-1,3.829786E-2,1.2740304E-1,3.742468E-2,1.556262E-1,-5.8062365E-3,3.1593534E-1,7.8721605E-2,-9.553627E-2,9.090542E-2,3.5783133E-1,4.3525733E-2,-1.7205927E-1,1.0804321E-1,-2.1011662E-1,2.3503184E-1,-2.240722E-1,-4.2353077E-3],"split_indices":[6,6,6,6,6,6,6,6,6,6,5,6,5,5,6,0,6,0,1,8,5,4,2,2,4,4,5,4,5,5,5,0,0,0,0,0,0,0,0,0,0,0,0,0,0,0,0,0,0,0,0,0,0,0,0,0,0,0,0,0,0],"split_type":[0,0,0,0,0,0,0,0,0,0,0,0,0,0,0,0,0,0,0,0,0,0,0,0,0,0,0,0,0,0,0,0,0,0,0,0,0,0,0,0,0,0,0,0,0,0,0,0,0,0,0,0,0,0,0,0,0,0,0,0,0],"sum_hessian":[3.1178666E5,1.2766177E5,1.8412488E5,1.181711E5,9.490666E3,9.91111E3,1.7421377E5,1.0752044E5,1.0650666E4,5.4306665E3,4.0599998E3,4.8039995E3,5.107111E3,1.0833777E4,1.6337998E5,8.114355E4,2.6376887E4,6.559111E3,4.0915554E3,3.4368887E3,1.9937777E3,3.6799998E3,3.7999997E2,1.8066665E3,2.9973333E3,1.7822221E2,4.9288887E3,9.6888885E1,1.0736889E4,1.5651999E4,1.4772798E5,1.9577332E4,6.799555E3,5.3524443E3,1.2066666E3,3.7546665E3,3.3688885E2,5.137778E2,2.9231108E3,1.771111E3,2.2266666E2,6.1599994E2,3.0639998E3,3.653333E2,1.4666666E1,8.671111E2,9.395555E2,1.7377777E2,2.8235554E3,4.7111107E1,1.311111E2,4.6537773E3,2.7511108E2,2.6666664E1,7.022222E1,1.0645333E4,9.155555E1,1.5635555E4,1.6444443E1,1.4768177E5,4.622222E1],"tree_param":{"num_deleted":"0","num_feature":"10","num_nodes":"61","size_leaf_vector":"0"}},{"base_weights":[-1.0361543E-1,-7.1076983E-1,2.8462556E-1,-7.321727E-1,-3.863942E-1,1.2018453E0,-6.761067E-1,-7.412293E-1,-6.2164426E-1,-4.6271014E-1,-2.9543328E-1,3.3407685E-1,1.3108478E0,-2.052849E-1,-7.2348464E-1,-7.4782294E-1,-7.191259E-1,-6.2931645E-1,-5.026278E-1,-4.8566616E-1,-2.0618223E-1,-4.513275E-1,-2.6788774E-1,5.6445595E-2,5.938323E-1,1.3801875E0,7.3813856E-1,4.3904588E-2,-3.3910373E-1,-6.007035E-1,-7.364323E-1,-7.4896574E-1,-7.410508E-1,-7.248828E-1,-6.9511425E-1,-6.7263645E-1,-6.110173E-1,-4.2662638E-1,-6.7145795E-1,-5.376524E-1,-4.5210475E-1,-1.5339709E-2,-3.6049977E-1,1.9526623E-1,-4.7484916E-1,-1.2602171E-1,-3.0320442E-1,-9.691978E-2,1.5038386E-1,4.2955756E-1,7.314036E-1,1.0768476E0,1.4154631E0,9.103806E-1,4.8172262E-1,5.0661236E-1,-1.35004865E-2,-3.7274966E-1,2.0130089E-1,-6.070612E-1,6.434316E-1,-2.0716117E-1,-7.373278E-1],"categories":[],"categories_nodes":[],"categories_segments":[],"categories_sizes":[],"default_left":[1,1,1,1,1,1,1,1,1,1,1,1,1,1,1,1,1,1,1,1,1,1,1,1,1,1,1,1,1,1,1,0,0,0,0,0,0,0,0,0,0,0,0,0,0,0,0,0,0,0,0,0,0,0,0,0,0,0,0,0,0,0,0],"id":1,"left_children":[1,3,5,7,9,11,13,15,17,19,21,23,25,27,29,31,33,35,37,39,41,43,45,47,49,51,53,55,57,59,61,-1,-1,-1,-1,-1,-1,-1,-1,-1,-1,-1,-1,-1,-1,-1,-1,-1,-1,-1,-1,-1,-1,-1,-1,-1,-1,-1,-1,-1,-1,-1,-1],"loss_changes":[7.349548E4,8.44E2,1.6758761E5,1.1373047E2,5.213086E1,9.2024375E3,2.0718477E3,1.4828125E1,7.5786133E0,2.4000366E1,1.4642059E1,7.830604E2,3.4314844E3,2.832542E2,1.3371875E2,7.8125E-2,2.8476562E0,6.024414E0,6.4956055E0,6.3095093E0,9.945415E0,7.921959E0,1.4612289E1,7.564908E1,1.2646655E2,8.2346875E2,4.1193555E2,7.885695E1,1.0055713E2,6.411401E1,3.603125E1,0E0,0E0,0E0,0E0,0E0,0E0,0E0,0E0,0E0,0E0,0E0,0E0,0E0,0E0,0E0,0E0,0E0,0E0,0E0,0E0,0E0,0E0,0E0,0E0,0E0,0E0,0E0,0E0,0E0,0E0,0E0,0E0],"parents":[2147483647,0,0,1,1,2,2,3,3,4,4,5,5,6,6,7,7,8,8,9,9,10,10,11,11,12,12,13,13,14,14,15,15,16,16,17,17,18,18,19,19,20,20,21,21,22,22,23,23,24,24,25,25,26,26,27,27,28,28,29,29,30,30],"right_children":[2,4,6,8,10,12,14,16,18,20,22,24,26,28,30,32,34,36,38,40,42,44,46,48,50,52,54,56,58,60,62,-1,-1,-1,-1,-1,-1,-1,-1,-1,-1,-1,-1,-1,-1,-1,-1,-1,-1,-1,-1,-1,-1,-1,-1,-1,-1,-1,-1,-1,-1,-1,-1],"split_conditions":[5.8070527E-6,5.662446E-6,7.892467E-6,5.4919856E-6,5.7416237E-6,6.0130633E-6,8.159839E-6,4.9579257E-6,5.4964055E4,3.4982998E3,-1.1122631E-6,5.906888E-6,7.640078E-6,7.982975E-6,8.437169E-6,4.6061705E-6,5.3995886E-6,5.54104E-6,8.6071856E-7,2.1936477E4,4.0309726E-7,2.2349E-2,5.43375E-2,5.8450046E-6,5.955631E-6,6.1575042E-6,7.787374E-6,-1.1711729E0,1.5390624E0,2.8183336E0,-3.5697327E0,-2.2468974E-1,-2.2231524E-1,-2.1746485E-1,-2.0853429E-1,-2.0179094E-1,-1.8330519E-1,-1.2798792E-1,-2.014374E-1,-1.6129571E-1,-1.3563143E-1,-4.601913E-3,-1.0814994E-1,5.8579873E-2,-1.4245476E-1,-3.7806515E-2,-9.096133E-2,-2.9075935E-2,4.5115158E-2,1.2886727E-1,2.1942109E-1,3.2305428E-1,4.2463896E-1,2.731142E-1,1.445168E-1,1.5198371E-1,-4.0501463E-3,-1.118249E-1,6.0390268E-2,-1.8211837E-1,1.930295E-1,-6.2148355E-2,-2.2119835E-1],"split_indices":[6,6,6,6,6,6,6,6,0,1,8,6,6,6,6,6,6,6,9,0,9,2,2,6,6,6,6,5,5,5,5,0,0,0,0,0,0,0,0,0,0,0,0,0,0,0,0,0,0,0,0,0,0,0,0,0,0,0,0,0,0,0,0],"split_type":[0,0,0,0,0,0,0,0,0,0,0,0,0,0,0,0,0,0,0,0,0,0,0,0,0,0,0,0,0,0,0,0,0,0,0,0,0,0,0,0,0,0,0,0,0,0,0,0,0,0,0,0,0,0,0,0,0,0,0,0,0,0,0],"sum_hessian":[3.1178666E5,1.2160799E5,1.9017866E5,1.1407955E5,7.528444E3,9.729244E4,9.288622E4,1.05434664E5,8.644889E3,4.0915554E3,3.4368887E3,1.0857777E4,8.6434664E4,8.492889E3,8.439333E4,8.118399E4,2.4250666E4,8.117333E3,5.2755554E2,3.7546665E3,3.3688885E2,5.137778E2,2.9231108E3,5.2488887E3,5.6088887E3,7.7098664E4,9.335999E3,2.9675554E3,5.525333E3,8.055111E3,7.633822E4,6.936844E4,1.1815555E4,1.9537332E4,4.713333E3,2.3999998E3,5.717333E3,3.662222E2,1.6133333E2,1.4671111E3,2.2875554E3,1.511111E2,1.8577777E2,1.7777777E1,4.9599997E2,5.8355554E2,2.3395554E3,1.9937777E3,3.2551108E3,2.5582222E3,3.0506665E3,8.035111E3,6.9063555E4,5.583111E3,3.7528887E3,3.2666666E2,2.6408887E3,5.2017773E3,3.2355554E2,8.014666E3,4.0444443E1,1.2933333E2,7.620888E4],"tree_param":{"num_deleted":"0","num_feature":"10","num_nodes":"63","size_leaf_vector":"0"}},{"base_weights":[-6.739527E-2,-7.0917875E-1,1.4076015E0,-7.3549944E-1,-1.4160778E-1,7.4529445E-1,1.4625437E0,-7.431347E-1,-5.933714E-1,-2.729129E-1,9.635032E-2,5.362506E-1,9.437083E-1,1.2826121E0,1.483789E0,-7.459586E-1,-7.054447E-1,-6.261739E-1,-5.28175E-1,-3.315086E-1,-1.4433466E-1,2.0639867E-1,-4.663934E-3,8.8972025E-2,5.909685E-1,9.7897404E-1,2.0209283E-1,1.2911738E0,1.1256114E-1,8.474434E-1,1.4848523E0,-7.4738175E-1,-7.367064E-1,-6.2756073E-1,-7.130461E-1,-4.4916826E-1,-6.408096E-1,-5.0806737E-1,-6.1224496E-1,-5.51491E-1,-3.1104597E-1,-4.5356378E-1,-1.1761062E-1,-2.3076928E-1,2.6623523E-1,-3.076158E-1,3.856256E-2,-2.7328563E-1,2.2994009E-1,6.4654225E-1,2.0767303E-1,9.404384E-2,1.006039E0,4.0290844E-1,-4.3902445E-1,-2.2873905E-1,1.2973456E0,3.3839476E-1,-5.403727E-1,-5.338083E-2,1.1140065E0,1.4854594E0,4.6153843E-1],"categories":[],"categories_nodes":[],"categories_segments":[],"categories_sizes":[],"default_left":[1,1,1,1,1,1,1,1,1,1,1,1,1,1,1,1,1,1,1,1,1,1,1,1,1,1,1,1,1,1,1,0,0,0,0,0,0,0,0,0,0,0,0,0,0,0,0,0,0,0,0,0,0,0,0,0,0,0,0,0,0,0,0],"id":2,"left_children":[1,3,5,7,9,11,13,15,17,19,21,23,25,27,29,31,33,35,37,39,41,43,45,47,49,51,53,55,57,59,61,-1,-1,-1,-1,-1,-1,-1,-1,-1,-1,-1,-1,-1,-1,-1,-1,-1,-1,-1,-1,-1,-1,-1,-1,-1,-1,-1,-1,-1,-1,-1,-1],"loss_changes":[2.9514806E5,3.2454922E3,3.4387656E3,2.2486719E2,3.009132E2,2.999226E2,3.3176562E2,2.0453125E1,2.2317871E1,4.670819E1,3.80748E1,8.6327576E1,9.695703E1,9.227246E1,5.15625E1,1.859375E0,7.6938477E0,1.795044E1,5.6920776E0,1.9015015E1,1.601617E1,4.2941246E1,2.3410692E1,1.9768932E1,6.684851E1,8.483179E1,2.2049461E1,8.620801E1,1.0226143E1,3.1889557E1,4.775E1,0E0,0E0,0E0,0E0,0E0,0E0,0E0,0E0,0E0,0E0,0E0,0E0,0E0,0E0,0E0,0E0,0E0,0E0,0E0,0E0,0E0,0E0,0E0,0E0,0E0,0E0,0E0,0E0,0E0,0E0,0E0,0E0],"parents":[2147483647,0,0,1,1,2,2,3,3,4,4,5,5,6,6,7,7,8,8,9,9,10,10,11,11,12,12,13,13,14,14,15,15,16,16,17,17,18,18,19,19,20,20,21,21,22,22,23,23,24,24,25,25,26,26,27,27,28,28,29,29,30,30],"right_children":[2,4,6,8,10,12,14,16,18,20,22,24,26,28,30,32,34,36,38,40,42,44,46,48,50,52,54,56,58,60,62,-1,-1,-1,-1,-1,-1,-1,-1,-1,-1,-1,-1,-1,-1,-1,-1,-1,-1,-1,-1,-1,-1,-1,-1,-1,-1,-1,-1,-1,-1,-1,-1],"split_conditions":[7.845672E-6,7.588868E-6,8.064377E-6,7.320471E-6,7.753008E-6,7.946757E-6,8.375585E-6,6.9906464E-6,7.493135E-6,7.702056E-6,6.758501E-2,-1.1654364E0,1.672477E0,2.6166184E0,-3.5697327E0,6.49324E-6,4.1529465E-2,4.6516E-2,8.2753783E-1,-1.330159E0,-1.3645227E0,1.13162E3,-1.0855966E0,-1.8796504E0,9.427411E-6,-1.9069116E0,2.5128932E0,-2.375401E-5,2.9370678E-5,9.118573E-6,4.9148684E0,-2.2421454E-1,-2.2101192E-1,-1.8826823E-1,-2.1391383E-1,-1.3475049E-1,-1.9224289E-1,-1.5242022E-1,-1.836735E-1,-1.6544731E-1,-9.33138E-2,-1.3606913E-1,-3.5283186E-2,-6.923079E-2,7.9870574E-2,-9.228474E-2,1.1568768E-2,-8.198569E-2,6.898203E-2,1.9396268E-1,6.230191E-2,2.8213155E-2,3.0181172E-1,1.20872535E-1,-1.3170734E-1,-6.862172E-2,3.892037E-1,1.0151843E-1,-1.6211182E-1,-1.601425E-2,3.3420196E-1,4.4563785E-1,1.3846153E-1],"split_indices":[6,6,6,6,6,6,6,6,6,6,2,5,5,5,5,6,3,2,5,5,5,1,5,5,4,5,5,4,4,6,5,0,0,0,0,0,0,0,0,0,0,0,0,0,0,0,0,0,0,0,0,0,0,0,0,0,0,0,0,0,0,0,0],"split_type":[0,0,0,0,0,0,0,0,0,0,0,0,0,0,0,0,0,0,0,0,0,0,0,0,0,0,0,0,0,0,0,0,0,0,0,0,0,0,0,0,0,0,0,0,0,0,0,0,0,0,0,0,0,0,0,0,0,0,0,0,0,0,0],"sum_hessian":[3.1178666E5,2.1725688E5,9.452977E4,2.0762798E5,9.628889E3,7.2422217E3,8.728755E4,1.9703866E5,1.0589333E4,6.2048887E3,3.4239998E3,3.5284443E3,3.7137776E3,9.224444E3,7.806311E4,1.832871E5,1.3751555E4,7.039111E3,3.550222E3,4.261333E3,1.9435554E3,1.6382222E3,1.7857777E3,3.8488885E2,3.1435554E3,3.5448887E3,1.6888889E2,9.157333E3,6.711111E1,1.3155554E2,7.7931555E4,1.5878398E5,2.450311E4,1.2302222E3,1.2521333E4,5.3999994E2,6.499111E3,2.8706665E3,6.7955554E2,3.6044443E2,3.9008887E3,1.5333333E2,1.7902222E3,1.9688887E2,1.4413333E3,2.2222221E2,1.5635554E3,1.0755555E2,2.773333E2,2.7448887E3,3.9866666E2,1.0533333E2,3.4395554E3,1.2888889E2,3.9999996E1,3.6888885E1,9.120444E3,5.0222218E1,1.6888887E1,3.0222221E1,1.0133333E2,7.788488E4,4.6666664E1],"tree_param":{"num_deleted":"0","num_feature":"10","num_nodes":"63","size_leaf_vector":"0"}},{"base_weights":[1.3283174E-1,9.520146E-1,-6.202655E-1,9.9061507E-1,5.166187E-1,-1.4746545E-1,-6.5294564E-1,1.0019937E0,8.802737E-1,6.3059044E-1,2.9196763E-1,-9.641203E-3,-3.1704545E-1,-5.0685465E-1,-6.627036E-1,1.0058866E0,9.7829306E-1,9.139071E-1,8.205138E-1,7.025253E-1,5.206275E-1,7.653906E-1,2.671341E-1,-3.0039005E-2,6.847587E-1,-3.425481E-1,3.2935575E-1,4.4026047E-1,-5.1652235E-1,-6.6301566E-1,-1.0512357E-1,1.0079354E0,9.959747E-1,9.892486E-1,9.6538025E-1,9.383742E-1,8.891066E-1,8.3529377E-1,6.510273E-1,-2.2261946E-2,7.0684814E-1,4.8624846E-1,7.7089286E-1,1.05224E0,6.276193E-1,2.1285714E-1,5.156354E-1,4.9275562E-1,-5.9801243E-2,4.4610462E-1,1.0329565E0,6.149534E-2,-3.7551683E-1,1.894215E-1,9.076017E-1,9.655518E-1,1.5097746E-1,-5.2921903E-1,4.4129353E-2,-6.212024E-1,-6.6696286E-1,1.3693104E0,-3.3637542E-1],"categories":[],"categories_nodes":[],"categories_segments":[],"categories_sizes":[],"default_left":[1,1,1,1,1,1,1,1,1,1,1,1,1,1,1,1,1,1,1,1,1,1,1,1,1,1,1,1,1,1,1,0,0,0,0,0,0,0,0,0,0,0,0,0,0,0,0,0,0,0,0,0,0,0,0,0,0,0,0,0,0,0,0],"id":3,"left_children":[1,3,5,7,9,11,13,15,17,19,21,23,25,27,29,31,33,35,37,39,41,43,45,47,49,51,53,55,57,59,61,-1,-1,-1,-1,-1,-1,-1,-1,-1,-1,-1,-1,-1,-1,-1,-1,-1,-1,-1,-1,-1,-1,-1,-1,-1,-1,-1,-1,-1,-1,-1,-1],"loss_changes":[1.8632823E5,2.4308281E3,2.4313281E3,1.6596094E2,3.015105E2,2.3780913E2,2.0948047E2,1.01328125E1,2.4233398E1,6.146338E1,4.6443695E1,7.953966E1,7.531549E1,8.464795E1,2.39375E1,1.1015625E0,1.4541016E0,3.9863281E0,1.0694824E1,1.4811523E1,2.625415E1,7.1336823E0,5.0760468E1,8.490407E1,1.2855614E1,5.8491394E1,1.3880068E1,1.4092808E1,6.499463E1,2.2347656E1,2.7179377E1,0E0,0E0,0E0,0E0,0E0,0E0,0E0,0E0,0E0,0E0,0E0,0E0,0E0,0E0,0E0,0E0,0E0,0E0,0E0,0E0,0E0,0E0,0E0,0E0,0E0,0E0,0E0,0E0,0E0,0E0,0E0,0E0],"parents":[2147483647,0,0,1,1,2,2,3,3,4,4,5,5,6,6,7,7,8,8,9,9,10,10,11,11,12,12,13,13,14,14,15,15,16,16,17,17,18,18,19,19,20,20,21,21,22,22,23,23,24,24,25,25,26,26,27,27,28,28,29,29,30,30],"right_children":[2,4,6,8,10,12,14,16,18,20,22,24,26,28,30,32,34,36,38,40,42,44,46,48,50,52,54,56,58,60,62,-1,-1,-1,-1,-1,-1,-1,-1,-1,-1,-1,-1,-1,-1,-1,-1,-1,-1,-1,-1,-1,-1,-1,-1,-1,-1,-1,-1,-1,-1,-1,-1],"split_conditions":[5.9490985E-6,5.7416237E-6,6.143714E-6,5.523915E-6,5.877562E-6,6.0572393E-6,6.334416E-6,5.2160817E-6,5.6640533E-6,5.8223563E-6,-9.142628E-6,1.1565053E-5,1.7230663E0,-2.5854137E0,4.8501287E0,4.810875E-6,2.945839E4,2.953525E4,3.4982998E3,1.34765E2,1.132628E0,-1.2978433E-5,5.861909E-6,-9.44284E-6,2.4244123E0,-1.3864319E0,2.6891441E0,-1.99602E-5,1.998012E0,6.592773E-6,6.8264662E-6,3.0238062E-1,2.9879242E-1,2.967746E-1,2.8961408E-1,2.815123E-1,2.6673198E-1,2.5058815E-1,1.9530821E-1,-6.678584E-3,2.1205445E-1,1.4587454E-1,2.3126787E-1,3.15672E-1,1.8828581E-1,6.3857146E-2,1.5469062E-1,1.4782669E-1,-1.7940374E-2,1.338314E-1,3.0988696E-1,1.8448602E-2,-1.1265505E-1,5.6826454E-2,2.722805E-1,2.8966555E-1,4.529324E-2,-1.5876572E-1,1.3238806E-2,-1.8636073E-1,-2.0008887E-1,4.1079313E-1,-1.0091263E-1],"split_indices":[6,6,6,6,6,6,6,6,6,6,4,4,5,5,5,6,0,0,1,1,5,4,4,4,5,5,5,4,5,6,6,0,0,0,0,0,0,0,0,0,0,0,0,0,0,0,0,0,0,0,0,0,0,0,0,0,0,0,0,0,0,0,0],"split_type":[0,0,0,0,0,0,0,0,0,0,0,0,0,0,0,0,0,0,0,0,0,0,0,0,0,0,0,0,0,0,0,0,0,0,0,0,0,0,0,0,0,0,0,0,0,0,0,0,0,0,0,0,0,0,0,0,0,0,0,0,0,0,0],"sum_hessian":[3.0202575E5,1.4466542E5,1.5736034E5,1.3288327E5,1.1782153E4,1.0173984E4,1.4718636E5,1.2045377E5,1.2429484E4,7.8153843E3,3.9667688E3,5.613076E3,4.5609077E3,9.218866E3,1.379675E5,1.0342424E5,1.7029537E4,7.9441533E3,4.4853315E3,4.721387E3,3.093997E3,1.9622102E2,3.7705476E3,5.453828E3,1.5924792E2,4.3882476E3,1.7266052E2,9.270089E1,9.126166E3,1.3789014E5,7.736209E1,8.56247E4,1.7799537E4,9.172116E3,7.8574214E3,3.9804214E3,3.963732E3,4.121949E3,3.633822E2,2.7967974E1,4.6934194E3,2.7228948E3,3.711023E2,6.1511707E1,1.3470932E2,3.0961516E3,6.743961E2,2.9292032E2,5.160908E3,9.584033E1,6.34076E1,3.3098953E2,4.0572578E3,1.400873E2,3.2573235E1,3.2091026E1,6.0609867E1,8.924123E3,2.0204274E2,1.1907741E4,1.2598239E5,9.821309E0,6.754079E1],"tree_param":{"num_deleted":"0","num_feature":"10","num_nodes":"63","size_leaf_vector":"0"}},{"base_weights":[-8.170587E-2,-6.2911105E-1,2.1882004E-1,-6.541056E-1,-3.7758988E-1,8.1269056E-1,-5.9762496E-1,-6.6088676E-1,-5.742606E-1,-4.4258744E-1,-2.5132185E-1,1.670332E-1,8.76785E-1,-1.8110394E-1,-6.401413E-1,-6.6629297E-1,-6.400547E-1,-5.991405E-1,-5.4029095E-1,-4.9879327E-1,-3.8666207E-1,-2.7312925E-1,3.0138422E-2,-2.550712E-2,3.3160913E-1,9.1733265E-1,4.3052194E-1,-4.4464365E-2,-3.1510633E-1,-5.134758E-1,-6.5396076E-1,-6.680286E-1,-6.60501E-1,-6.4820015E-1,-6.307489E-1,-6.0501343E-1,-4.7415662E-1,-6.044149E-1,-5.083383E-1,-4.1963434E-1,-5.2172846E-1,-4.0027985E-1,-1.1520568E-1,-4.1762543E-1,-2.4811706E-1,-1.0130322E-1,5.076986E-1,-1.5609488E-1,3.1678576E-2,2.8443396E-1,5.778363E-1,6.5408176E-1,9.426716E-1,5.203435E-1,2.1649626E-1,-8.7606914E-2,4.3643293E-1,2.3529398E-1,-3.4150562E-1,-5.2124226E-1,3.3009845E-1,-6.550495E-1,-1.8663734E-1],"categories":[],"categories_nodes":[],"categories_segments":[],"categories_sizes":[],"default_left":[1,1,1,1,1,1,1,1,1,1,1,1,1,1,1,1,1,1,1,1,1,1,1,1,1,1,1,1,1,1,1,0,0,0,0,0,0,0,0,0,0,0,0,0,0,0,0,0,0,0,0,0,0,0,0,0,0,0,0,0,0,0,0],"id":4,"left_children":[1,3,5,7,9,11,13,15,17,19,21,23,25,27,29,31,33,35,37,39,41,43,45,47,49,51,53,55,57,59,61,-1,-1,-1,-1,-1,-1,-1,-1,-1,-1,-1,-1,-1,-1,-1,-1,-1,-1,-1,-1,-1,-1,-1,-1,-1,-1,-1,-1,-1,-1,-1,-1],"loss_changes":[4.809736E4,6.511914E2,9.151667E4,5.0648438E1,7.678003E1,4.5216797E3,1.4073906E3,9.359375E0,5.918457E0,1.9244629E1,1.9564392E1,3.1272278E2,1.7982422E3,1.3480077E2,1.2590625E2,2.5195312E-1,9.4970703E-1,2.8358154E0,6.1116333E0,5.3742065E0,1.1428436E1,1.0583862E1,1.4489371E1,3.39749E1,6.1641174E1,6.072031E2,1.590852E2,7.5697556E1,5.4091187E1,4.6681274E1,3.295703E1,0E0,0E0,0E0,0E0,0E0,0E0,0E0,0E0,0E0,0E0,0E0,0E0,0E0,0E0,0E0,0E0,0E0,0E0,0E0,0E0,0E0,0E0,0E0,0E0,0E0,0E0,0E0,0E0,0E0,0E0,0E0,0E0],"parents":[2147483647,0,0,1,1,2,2,3,3,4,4,5,5,6,6,7,7,8,8,9,9,10,10,11,11,12,12,13,13,14,14,15,15,16,16,17,17,18,18,19,19,20,20,21,21,22,22,23,23,24,24,25,25,26,26,27,27,28,28,29,29,30,30],"right_children":[2,4,6,8,10,12,14,16,18,20,22,24,26,28,30,32,34,36,38,40,42,44,46,48,50,52,54,56,58,60,62,-1,-1,-1,-1,-1,-1,-1,-1,-1,-1,-1,-1,-1,-1,-1,-1,-1,-1,-1,-1,-1,-1,-1,-1,-1,-1,-1,-1,-1,-1,-1,-1],"split_conditions":[5.79502E-6,5.5940345E-6,7.911973E-6,5.4285265E-6,5.730428E-6,5.978639E-6,8.159839E-6,4.9579257E-6,5.523915E-6,5.6640533E-6,3.532495E3,5.882871E-6,7.702056E-6,8.028884E-6,8.437169E-6,4.3809787E-6,2.945976E4,3.60375E3,1.305635E3,5.3796E-2,3.967485E3,-1.1117378E-6,7.39795E-2,5.8223563E-6,7.417674E-2,6.111246E-6,7.845672E-6,1.3763433E0,-1.6573359E0,2.5735083E0,3.242859E0,-2.004086E-1,-1.981503E-1,-1.9446005E-1,-1.8922469E-1,-1.8150404E-1,-1.4224699E-1,-1.8132447E-1,-1.525015E-1,-1.2589031E-1,-1.5651855E-1,-1.2008396E-1,-3.4561705E-2,-1.2528764E-1,-7.443512E-2,-3.0390967E-2,1.5230958E-1,-4.6828464E-2,9.503573E-3,8.533019E-2,1.7335089E-1,1.9622454E-1,2.8280148E-1,1.5610304E-1,6.494888E-2,-2.6282076E-2,1.3092989E-1,7.05882E-2,-1.0245169E-1,-1.5637268E-1,9.902954E-2,-1.9651486E-1,-5.5991206E-2],"split_indices":[6,6,6,6,6,6,6,6,6,6,1,6,6,6,6,6,0,1,1,2,1,8,2,6,3,6,6,5,5,5,5,0,0,0,0,0,0,0,0,0,0,0,0,0,0,0,0,0,0,0,0,0,0,0,0,0,0,0,0,0,0,0,0],"split_type":[0,0,0,0,0,0,0,0,0,0,0,0,0,0,0,0,0,0,0,0,0,0,0,0,0,0,0,0,0,0,0,0,0,0,0,0,0,0,0,0,0,0,0,0,0,0,0,0,0,0,0,0,0,0,0,0,0,0,0,0,0,0,0],"sum_hessian":[2.9236656E5,1.03620914E5,1.8874564E5,9.4253055E4,9.367857E3,1.0926664E5,7.9479E4,8.686811E4,7.384949E3,6.1827354E3,3.1851218E3,9.867695E3,9.9398945E4,7.361889E3,7.211711E4,6.894507E4,1.7923035E4,4.2531987E3,3.1317507E3,3.0796855E3,3.1030498E3,2.956113E3,2.2900865E2,4.547886E3,5.3198086E3,9.11188E4,8.280148E3,3.645736E3,3.716153E3,7.097899E3,6.501921E4,5.2960332E4,1.5984737E4,9.520778E3,8.402257E3,4.0586462E3,1.9455238E2,1.0355833E3,2.0961675E3,6.961787E2,2.3835068E3,2.9543674E3,1.4868233E2,4.338798E2,2.5222334E3,1.8019925E2,4.8809406E1,1.3845149E3,3.1633716E3,4.4662627E3,8.535456E2,8.002835E3,8.311596E4,5.831411E3,2.4487375E3,3.3463445E3,2.9939145E2,1.697207E2,3.5464324E3,7.033526E3,6.437302E1,6.4867688E4,1.5152391E2],"tree_param":{"num_deleted":"0","num_feature":"10","num_nodes":"63","size_leaf_vector":"0"}},{"base_weights":[-5.543333E-2,-6.28039E-1,9.491829E-1,-6.556656E-1,-1.27847E-1,4.9708155E-1,9.841186E-1,-6.6289735E-1,-5.1583946E-1,-2.592099E-1,2.8101377E-2,3.1863216E-1,6.0179055E-1,8.267236E-1,9.9621826E-1,-6.655557E-1,-6.178272E-1,-3.4545034E-1,-5.294082E-1,-4.1335577E-1,-2.3001502E-1,4.6062954E-2,-4.0984565E-1,-2.6133296E-1,3.4395403E-1,6.194158E-1,-2.2034462E-1,4.863602E-1,8.459632E-1,9.971771E-1,5.703932E-1,-6.6803E-1,-6.5789336E-1,-5.266337E-1,-6.2693405E-1,-4.411377E-1,-1.2076935E-1,-5.667928E-1,-4.838865E-1,9.582316E-1,-4.1649905E-1,-1.9527262E-1,-4.0418363E-1,-1.9108845E-1,8.2275026E-2,6.46385E-1,-4.326016E-1,-5.227866E-1,-1.6488323E-1,3.6769193E-1,-1.591851E-1,-5.367692E-2,6.377743E-1,-2.2358304E-2,-5.5146563E-1,-3.4515014E-1,5.4807216E-1,8.590605E-1,3.2689574E-1,5.5622643E-1,9.980425E-1,-4.4300687E-1,7.64745E-1],"categories":[],"categories_nodes":[],"categories_segments":[],"categories_sizes":[],"default_left":[1,1,1,1,1,1,1,1,1,1,1,1,1,1,1,1,1,1,1,1,1,1,1,1,1,1,1,1,1,1,1,0,0,0,0,0,0,0,0,0,0,0,0,0,0,0,0,0,0,0,0,0,0,0,0,0,0,0,0,0,0,0,0],"id":5,"left_children":[1,3,5,7,9,11,13,15,17,19,21,23,25,27,29,31,33,35,37,39,41,43,45,47,49,51,53,55,57,59,61,-1,-1,-1,-1,-1,-1,-1,-1,-1,-1,-1,-1,-1,-1,-1,-1,-1,-1,-1,-1,-1,-1,-1,-1,-1,-1,-1,-1,-1,-1,-1,-1],"loss_changes":[1.6843047E5,2.5770469E3,1.6784375E3,1.7836719E2,2.0000433E2,1.4231946E2,1.8709375E2,1.971875E1,1.992163E1,2.3752533E1,3.5138012E1,4.1540344E1,6.976904E1,4.5753906E1,3.684375E1,2.5703125E0,7.4543457E0,1.3798164E1,1.34296875E1,4.0316772E0,2.6894012E1,3.685335E1,4.509699E0,2.9057016E0,3.236371E1,5.8171997E1,6.6480675E0,1.9664597E1,4.5073242E1,3.4328125E1,4.134291E1,0E0,0E0,0E0,0E0,0E0,0E0,0E0,0E0,0E0,0E0,0E0,0E0,0E0,0E0,0E0,0E0,0E0,0E0,0E0,0E0,0E0,0E0,0E0,0E0,0E0,0E0,0E0,0E0,0E0,0E0,0E0,0E0],"parents":[2147483647,0,0,1,1,2,2,3,3,4,4,5,5,6,6,7,7,8,8,9,9,10,10,11,11,12,12,13,13,14,14,15,15,16,16,17,17,18,18,19,19,20,20,21,21,22,22,23,23,24,24,25,25,26,26,27,27,28,28,29,29,30,30],"right_children":[2,4,6,8,10,12,14,16,18,20,22,24,26,28,30,32,34,36,38,40,42,44,46,48,50,52,54,56,58,60,62,-1,-1,-1,-1,-1,-1,-1,-1,-1,-1,-1,-1,-1,-1,-1,-1,-1,-1,-1,-1,-1,-1,-1,-1,-1,-1,-1,-1,-1,-1,-1,-1],"split_conditions":[7.836591E-6,7.5641588E-6,8.049204E-6,7.314481E-6,7.716528E-6,7.911973E-6,8.256677E-6,7.050601E-6,4.6520002E-2,-9.5827913E-1,1.6704316E0,-1.657257E0,2.0749927E0,-1.5541885E0,3.242859E0,6.1577616E-6,4.1529465E-2,3.165654E4,7.4480004E-6,-7.904202E-6,8.012143E-6,-1.0557942E0,-3.3397696E-6,-1.9007555E-5,1.6327038E0,-1.9120147E0,2.1310498E-5,-2.3524655E-5,2.023509E0,-3.4174829E0,8.750793E-6,-2.0040901E-1,-1.9736801E-1,-1.5799011E-1,-1.8808022E-1,-1.3234131E-1,-3.6230806E-2,-1.7003784E-1,-1.4516596E-1,2.874695E-1,-1.24949716E-1,-5.8581788E-2,-1.2125509E-1,-5.7326537E-2,2.4682509E-2,1.9391552E-1,-1.2978049E-1,-1.5683599E-1,-4.946497E-2,1.1030758E-1,-4.7755532E-2,-1.6103076E-2,1.913323E-1,-6.7074914E-3,-1.654397E-1,-1.0354505E-1,1.6442165E-1,2.5771818E-1,9.806873E-2,1.6686794E-1,2.9941276E-1,-1.3290207E-1,2.2942351E-1],"split_indices":[6,6,6,6,6,6,6,6,2,5,5,5,5,5,5,6,3,0,6,9,4,5,9,4,5,5,4,4,5,5,6,0,0,0,0,0,0,0,0,0,0,0,0,0,0,0,0,0,0,0,0,0,0,0,0,0,0,0,0,0,0,0,0],"split_type":[0,0,0,0,0,0,0,0,0,0,0,0,0,0,0,0,0,0,0,0,0,0,0,0,0,0,0,0,0,0,0,0,0,0,0,0,0,0,0,0,0,0,0,0,0,0,0,0,0,0,0,0,0,0,0,0,0,0,0,0,0,0,0],"sum_hessian":[2.9279375E5,1.864961E5,1.0629765E5,1.7673439E5,9.7617E3,7.6259336E3,9.867172E4,1.6803966E5,8.694744E3,5.298149E3,4.463551E3,2.8214858E3,4.8044478E3,7.0488057E3,9.162291E4,1.5866742E5,9.372228E3,6.4327893E2,8.051465E3,8.415733E2,4.4565757E3,4.288558E3,1.7499236E2,1.17645485E2,2.7038403E3,4.7038516E3,1.0059636E2,3.7853342E2,6.670272E3,9.141572E4,2.0718915E2,1.1987204E5,3.8795387E4,8.563002E2,8.515927E3,4.5046924E2,1.928097E2,4.414568E3,3.636897E3,1.2294905E0,8.403438E2,3.717205E3,7.3937085E2,5.6753265E2,3.7210256E3,3.112633E0,1.7187973E2,3.0512537E1,8.713295E1,2.5822788E3,1.2156165E2,1.24839424E2,4.579012E3,6.3622345E1,3.697402E1,2.5835234E1,3.5269818E2,6.5054683E3,1.6480385E2,1.8032198E2,9.12354E4,3.313506E1,1.740541E2],"tree_param":{"num_deleted":"0","num_feature":"10","num_nodes":"63","size_leaf_vector":"0"}},{"base_weights":[1.1135181E-1,7.492749E-1,-5.683514E-1,7.8878164E-1,3.686503E-1,-1.7625283E-1,-6.0469854E-1,7.9997677E-1,6.789505E-1,4.6365863E-1,1.9252576E-1,-1.3704816E-2,-2.8903323E-1,-4.9232578E-1,-6.134716E-1,8.0360514E-1,7.7031493E-1,7.103702E-1,6.2766737E-1,5.258319E-1,3.8355902E-1,2.3231135E-1,-2.274255E-2,5.5315393E-1,-3.6403187E-2,-3.1336662E-1,2.915221E-1,3.7328842E-1,-5.0064355E-1,-6.137647E-1,1.1470423E-1,8.062969E-1,7.925878E-1,7.82626E-1,7.557782E-1,7.412103E-1,6.919859E-1,6.8719506E-1,5.941588E-1,7.4526083E-1,5.1170874E-1,3.9481086E-1,-1.4352733E-1,4.36644E-1,1.9726177E-1,-7.435889E-2,3.166496E-1,9.6022815E-1,4.497539E-1,-6.4608134E-2,4.3643555E-1,3.4460196E-1,-3.3156556E-1,2.0084958E-1,1.2036527E0,1.1623188E0,1.9972943E-1,-5.0525236E-1,5.925133E-1,-5.697092E-1,-6.1730343E-1,1.1781269E0,-3.2354948E-1],"categories":[],"categories_nodes":[],"categories_segments":[],"categories_sizes":[],"default_left":[1,1,1,1,1,1,1,1,1,1,1,1,1,1,1,1,1,1,1,1,1,1,1,1,1,1,1,1,1,1,1,0,0,0,0,0,0,0,0,0,0,0,0,0,0,0,0,0,0,0,0,0,0,0,0,0,0,0,0,0,0,0,0],"id":6,"left_children":[1,3,5,7,9,11,13,15,17,19,21,23,25,27,29,31,33,35,37,39,41,43,45,47,49,51,53,55,57,59,61,-1,-1,-1,-1,-1,-1,-1,-1,-1,-1,-1,-1,-1,-1,-1,-1,-1,-1,-1,-1,-1,-1,-1,-1,-1,-1,-1,-1,-1,-1,-1,-1],"loss_changes":[1.169256E5,2.0914922E3,1.8605352E3,1.5442188E2,2.1882703E2,2.0306497E2,1.1749219E2,1.16875E1,1.8348145E1,4.2116943E1,3.9282837E1,5.841584E1,9.24765E1,6.2520752E1,2.3722656E1,2.3828125E0,1.6435547E0,3.583496E0,8.447998E0,1.44366455E1,2.210199E1,2.7635406E1,1.25715275E1,6.9255943E0,5.8237442E1,7.5277954E1,2.1558933E1,1.1130303E1,4.350464E1,1.6921875E1,2.1552488E1,0E0,0E0,0E0,0E0,0E0,0E0,0E0,0E0,0E0,0E0,0E0,0E0,0E0,0E0,0E0,0E0,0E0,0E0,0E0,0E0,0E0,0E0,0E0,0E0,0E0,0E0,0E0,0E0,0E0,0E0,0E0,0E0],"parents":[2147483647,0,0,1,1,2,2,3,3,4,4,5,5,6,6,7,7,8,8,9,9,10,10,11,11,12,12,13,13,14,14,15,15,16,16,17,17,18,18,19,19,20,20,21,21,22,22,23,23,24,24,25,25,26,26,27,27,28,28,29,29,30,30],"right_children":[2,4,6,8,10,12,14,16,18,20,22,24,26,28,30,32,34,36,38,40,42,44,46,48,50,52,54,56,58,60,62,-1,-1,-1,-1,-1,-1,-1,-1,-1,-1,-1,-1,-1,-1,-1,-1,-1,-1,-1,-1,-1,-1,-1,-1,-1,-1,-1,-1,-1,-1,-1,-1],"split_conditions":[5.9686718E-6,5.7416237E-6,6.2022646E-6,5.5321134E-6,5.886407E-6,6.058828E-6,6.4168134E-6,5.2999912E-6,5.6640533E-6,5.8223563E-6,7.4176416E-2,-1.07903525E-5,1.7384646E0,-1.6539667E-5,5.388641E0,4.8391985E-6,2.9475906E4,2.1983295E4,2.1936477E4,-1.5406152E0,7.92945E-2,-1.1183566E-6,1.1439229E0,-2.7535503E0,1.5544095E0,-1.9350312E0,3.2336202E0,-3.7798696E0,1.9033294E-5,4.14825E-2,7.8314315E-6,2.4188907E-1,2.3777635E-1,2.347878E-1,2.2673346E-1,2.223631E-1,2.0759578E-1,2.0615853E-1,1.7824766E-1,2.2357826E-1,1.5351263E-1,1.1844326E-1,-4.30582E-2,1.309932E-1,5.917853E-2,-2.2307668E-2,9.499488E-2,2.8806844E-1,1.3492619E-1,-1.9382441E-2,1.3093068E-1,1.0338059E-1,-9.946967E-2,6.0254876E-2,3.6109585E-1,3.4869567E-1,5.9918832E-2,-1.5157571E-1,1.77754E-1,-1.7091276E-1,-1.8519104E-1,3.5343808E-1,-9.7064845E-2],"split_indices":[6,6,6,6,6,6,6,6,6,6,3,4,5,4,5,6,0,0,0,5,2,8,5,5,5,5,5,5,4,2,6,0,0,0,0,0,0,0,0,0,0,0,0,0,0,0,0,0,0,0,0,0,0,0,0,0,0,0,0,0,0,0,0],"split_type":[0,0,0,0,0,0,0,0,0,0,0,0,0,0,0,0,0,0,0,0,0,0,0,0,0,0,0,0,0,0,0,0,0,0,0,0,0,0,0,0,0,0,0,0,0,0,0,0,0,0,0,0,0,0,0,0,0,0,0,0,0,0,0],"sum_hessian":[2.6966138E5,1.3910592E5,1.30555445E5,1.2602424E5,1.3081684E4,1.1076157E4,1.1947929E5,1.1436106E5,1.166318E4,8.496639E3,4.5850454E3,4.53749E3,6.5386675E3,8.656511E3,1.1082277E5,1.01873445E5,1.2487619E4,7.224243E3,4.4389365E3,4.7804736E3,3.716165E3,3.869762E3,7.1528345E2,1.7379688E2,4.3636934E3,6.2760723E3,2.625952E2,8.197194E1,8.574539E3,1.1077834E5,4.442722E1,8.18126E4,2.0060842E4,6.7328037E3,5.7548154E3,2.6834204E3,4.5408228E3,1.5917316E3,2.8472053E3,2.8594974E2,4.494524E3,3.6387393E3,7.742589E1,5.649207E2,3.304841E3,6.2153796E2,9.374548E1,3.3525238E1,1.4027164E2,4.118865E3,2.4482796E2,1.684366E2,6.1076357E3,2.3996149E2,2.2633738E1,1.3752707E1,6.821923E1,8.539075E3,3.5463554E1,8.248673E3,1.0252967E5,1.2473074E1,3.1954145E1],"tree_param":{"num_deleted":"0","num_feature":"10","num_nodes":"63","size_leaf_vector":"0"}},{"base_weights":[-6.727665E-2,-5.829051E-1,1.7791444E-1,-6.0448354E-1,-3.8900092E-1,6.0812205E-1,-5.468018E-1,-6.1213624E-1,-5.6016684E-1,-4.459624E-1,-3.0437878E-1,7.7421404E-2,6.756929E-1,-2.0500165E-1,-5.8910495E-1,-6.1565036E-1,-5.9536844E-1,-5.744681E-1,-5.331166E-1,-4.8213935E-1,-4.096282E-1,-3.253068E-1,-9.548507E-2,-8.687551E-2,2.2938362E-1,7.267266E-1,3.5884193E-1,2.802155E-1,-2.3136319E-1,-4.9750078E-1,-6.0602987E-1,-6.157947E-1,-5.6359774E-1,1.0383605E-1,-5.954558E-1,-5.8747286E-1,-5.584397E-1,-5.3933287E-1,-4.068134E-1,-4.8905927E-1,-2.7182147E-1,-3.7885776E-1,-5.388639E-1,-4.508252E-1,-3.063924E-1,7.417746E-3,-3.7587985E-1,-1.489319E-1,1.9117875E-2,2.5379533E-1,-1.4049575E-1,5.43319E-1,7.600766E-1,4.6872976E-1,1.9410644E-1,8.47227E-1,1.6684932E-1,-2.5789526E-1,3.2085863E-1,1.1597253E0,-5.016334E-1,2.2161205E-1,-6.0672826E-1],"categories":[],"categories_nodes":[],"categories_segments":[],"categories_sizes":[],"default_left":[1,1,1,1,1,1,1,1,1,1,1,1,1,1,1,1,1,1,1,1,1,1,1,1,1,1,1,1,1,1,1,0,0,0,0,0,0,0,0,0,0,0,0,0,0,0,0,0,0,0,0,0,0,0,0,0,0,0,0,0,0,0,0],"id":7,"left_children":[1,3,5,7,9,11,13,15,17,19,21,23,25,27,29,31,33,35,37,39,41,43,45,47,49,51,53,55,57,59,61,-1,-1,-1,-1,-1,-1,-1,-1,-1,-1,-1,-1,-1,-1,-1,-1,-1,-1,-1,-1,-1,-1,-1,-1,-1,-1,-1,-1,-1,-1,-1,-1],"loss_changes":[3.2728193E4,3.4883398E2,5.4699707E4,2.5117188E1,4.014746E1,3.9478086E3,9.448301E2,3.4042969E0,3.9743652E0,6.3652344E0,1.4681366E1,3.1048898E2,1.5788594E3,9.214972E1,8.986133E1,5.078125E-2,7.4072266E-1,1.1784668E0,2.7962646E0,3.499939E0,9.727997E0,7.123047E0,8.885947E0,3.9309296E1,5.8368958E1,5.140547E2,2.451814E2,2.3733692E1,1.0013446E2,6.273169E1,2.8501953E1,0E0,0E0,0E0,0E0,0E0,0E0,0E0,0E0,0E0,0E0,0E0,0E0,0E0,0E0,0E0,0E0,0E0,0E0,0E0,0E0,0E0,0E0,0E0,0E0,0E0,0E0,0E0,0E0,0E0,0E0,0E0,0E0],"parents":[2147483647,0,0,1,1,2,2,3,3,4,4,5,5,6,6,7,7,8,8,9,9,10,10,11,11,12,12,13,13,14,14,15,15,16,16,17,17,18,18,19,19,20,20,21,21,22,22,23,23,24,24,25,25,26,26,27,27,28,28,29,29,30,30],"right_children":[2,4,6,8,10,12,14,16,18,20,22,24,26,28,30,32,34,36,38,40,42,44,46,48,50,52,54,56,58,60,62,-1,-1,-1,-1,-1,-1,-1,-1,-1,-1,-1,-1,-1,-1,-1,-1,-1,-1,-1,-1,-1,-1,-1,-1,-1,-1,-1,-1,-1,-1,-1,-1],"split_conditions":[5.742187E-6,5.5313003E-6,7.946757E-6,5.2160963E-6,5.662446E-6,5.979412E-6,8.219276E-6,4.810875E-6,5.4285265E-6,2.953525E4,3.4982998E3,5.8659853E-6,7.6088927E-6,-1.6322591E0,8.678813E-6,6.372267E4,4.8109223E-6,2.945976E4,3.60375E3,7.6488E-2,7.388735E-2,-1.1210005E0,4.516835E3,5.8223563E-6,1.4599919E0,6.1913443E-6,7.801021E-6,-2.5890203E0,1.7738149E0,-3.4586968E0,-4.8860893E0,-1.8473843E-1,-1.6907933E-1,3.1150816E-2,-1.7863676E-1,-1.7624186E-1,-1.6753191E-1,-1.6179986E-1,-1.2204403E-1,-1.4671779E-1,-8.154644E-2,-1.1365733E-1,-1.6165918E-1,-1.3524757E-1,-9.191772E-2,2.2253238E-3,-1.1276396E-1,-4.4679575E-2,5.735363E-3,7.61386E-2,-4.2148724E-2,1.629957E-1,2.2802298E-1,1.4061894E-1,5.8231935E-2,2.541681E-1,5.0054796E-2,-7.736858E-2,9.625759E-2,3.4791762E-1,-1.5049003E-1,6.648362E-2,-1.8201849E-1],"split_indices":[6,6,6,6,6,6,6,6,6,0,1,6,6,5,6,0,6,0,1,2,3,5,1,6,5,6,6,5,5,5,5,0,0,0,0,0,0,0,0,0,0,0,0,0,0,0,0,0,0,0,0,0,0,0,0,0,0,0,0,0,0,0,0],"split_type":[0,0,0,0,0,0,0,0,0,0,0,0,0,0,0,0,0,0,0,0,0,0,0,0,0,0,0,0,0,0,0,0,0,0,0,0,0,0,0,0,0,0,0,0,0,0,0,0,0,0,0,0,0,0,0,0,0,0,0,0,0,0,0],"sum_hessian":[2.5886745E5,8.3425375E4,1.7544208E5,7.506924E4,8.35613E3,1.10090234E5,6.5351844E4,6.4004113E4,1.1065128E4,4.991766E3,3.3643633E3,1.2434215E4,9.765602E4,7.198156E3,5.8153688E4,5.2885016E4,1.1119098E4,7.2250586E3,3.8400696E3,2.4951477E3,2.4966187E3,3.0574912E3,3.06872E2,5.9748345E3,6.4593804E3,8.4107875E4,1.3548145E4,3.704231E2,6.827733E3,9.073721E3,4.9079965E4,5.272796E4,1.5705432E2,1.240317E0,1.1117857E4,3.9690737E3,3.2559846E3,3.656822E3,1.8324765E2,2.4143838E3,8.0763916E1,2.0196744E3,4.7694412E2,3.9740778E2,2.6600835E3,2.2519913E2,8.167287E1,3.7682288E3,2.2066057E3,6.059756E3,3.9962454E2,1.2943381E4,7.116449E4,8.1258794E3,5.422265E3,6.06422E1,3.097809E2,6.515235E3,3.1249805E2,2.1875273E1,9.051846E3,4.111165E1,4.9038855E4],"tree_param":{"num_deleted":"0","num_feature":"10","num_nodes":"63","size_leaf_vector":"0"}},{"base_weights":[-4.905314E-2,-5.775385E-1,7.4323255E-1,-6.0509753E-1,-1.4618292E-1,3.2271996E-1,7.80556E-1,-6.124835E-1,-4.7712892E-1,-2.848842E-1,-5.7119343E-2,1.9162454E-1,4.217131E-1,6.2967914E-1,7.944944E-1,-6.1506784E-1,-5.7057285E-1,-3.1436914E-1,-4.9127883E-1,-3.5168907E-1,-2.279766E-1,2.3104105E-2,-1.260637E-1,3.2573864E-1,1.2278714E-1,1.3384017E-1,4.563368E-1,6.3634837E-1,-1.3282615E-1,7.492586E-1,8.0411357E-1,-6.176571E-1,-6.0700315E-1,1.0910997E0,-5.711836E-1,-3.3949292E-1,4.5252374E-1,-5.293858E-1,-4.4125396E-1,-3.2258835E-1,-4.7983775E-1,-2.3380058E-1,7.466917E-1,-1.932358E-1,6.614001E-2,1.3016738E0,-1.3390064E-1,-1.4107165E-1,3.8243312E-1,1.4465366E-1,-3.892985E-1,-4.703758E-1,1.9759099E-1,4.9073684E-1,9.701562E-2,1.5457858E-1,6.449093E-1,-2.9447263E-1,3.2893237E-1,-4.8521224E-1,7.5203145E-1,3.0102706E-2,8.044802E-1],"categories":[],"categories_nodes":[],"categories_segments":[],"categories_sizes":[],"default_left":[1,1,1,1,1,1,1,1,1,1,1,1,1,1,1,1,1,1,1,1,1,1,1,1,1,1,1,1,1,1,1,0,0,0,0,0,0,0,0,0,0,0,0,0,0,0,0,0,0,0,0,0,0,0,0,0,0,0,0,0,0,0,0],"id":8,"left_children":[1,3,5,7,9,11,13,15,17,19,21,23,25,27,29,31,33,35,37,39,41,43,45,47,49,51,53,55,57,59,61,-1,-1,-1,-1,-1,-1,-1,-1,-1,-1,-1,-1,-1,-1,-1,-1,-1,-1,-1,-1,-1,-1,-1,-1,-1,-1,-1,-1,-1,-1,-1,-1],"loss_changes":[1.0765132E5,1.8333242E3,1.614375E3,1.3671875E2,1.14412155E2,1.0877789E2,1.9820312E2,1.4496094E1,1.8073853E1,1.36892395E1,3.1209295E1,3.3295E1,4.7566895E1,4.0744873E1,3.7035156E1,2.3242188E0,8.716309E0,1.2404438E1,1.3644165E1,6.051468E0,1.1292885E1,2.4299862E1,3.4128006E1,3.2450592E1,2.67924E1,1.9908674E1,5.2670776E1,3.259204E1,5.333306E0,5.2331055E1,2.0214844E1,0E0,0E0,0E0,0E0,0E0,0E0,0E0,0E0,0E0,0E0,0E0,0E0,0E0,0E0,0E0,0E0,0E0,0E0,0E0,0E0,0E0,0E0,0E0,0E0,0E0,0E0,0E0,0E0,0E0,0E0,0E0,0E0],"parents":[2147483647,0,0,1,1,2,2,3,3,4,4,5,5,6,6,7,7,8,8,9,9,10,10,11,11,12,12,13,13,14,14,15,15,16,16,17,17,18,18,19,19,20,20,21,21,22,22,23,23,24,24,25,25,26,26,27,27,28,28,29,29,30,30],"right_children":[2,4,6,8,10,12,14,16,18,20,22,24,26,28,30,32,34,36,38,40,42,44,46,48,50,52,54,56,58,60,62,-1,-1,-1,-1,-1,-1,-1,-1,-1,-1,-1,-1,-1,-1,-1,-1,-1,-1,-1,-1,-1,-1,-1,-1,-1,-1,-1,-1,-1,-1,-1,-1],"split_conditions":[7.800938E-6,7.516872E-6,8.028884E-6,7.251857E-6,7.640078E-6,7.8972225E-6,8.267394E-6,6.988726E-6,4.1614503E-2,7.5758444E-6,6.78495E-2,6.00615E-2,-1.1711729E0,2.525921E0,8.803571E-6,6.127114E-6,1.87355E-2,4.1266344E-2,7.4022337E-6,8.4598976E-1,8.41875E-2,-1.5455621E-6,-3.9575643E-6,1.429029E4,1.6269249E0,-2.394198E0,1.3608623E0,-2.1252737E0,8.206487E-6,-3.4586968E0,-5.7221565E0,-1.8529715E-1,-1.8210095E-1,3.2732993E-1,-1.713551E-1,-1.0184788E-1,1.3575713E-1,-1.5881574E-1,-1.323762E-1,-9.677651E-2,-1.4395133E-1,-7.0140176E-2,2.2400752E-1,-5.7970744E-2,1.9842004E-2,3.9050215E-1,-4.0170193E-2,-4.2321496E-2,1.1472994E-1,4.33961E-2,-1.1678956E-1,-1.4111274E-1,5.92773E-2,1.4722106E-1,2.9104687E-2,4.6373576E-2,1.934728E-1,-8.8341795E-2,9.8679714E-2,-1.4556368E-1,2.2560944E-1,9.030812E-3,2.4134406E-1],"split_indices":[6,6,6,6,6,6,6,6,2,6,2,2,5,5,6,6,2,3,6,5,2,8,9,0,5,5,5,5,6,5,5,0,0,0,0,0,0,0,0,0,0,0,0,0,0,0,0,0,0,0,0,0,0,0,0,0,0,0,0,0,0,0,0],"split_type":[0,0,0,0,0,0,0,0,0,0,0,0,0,0,0,0,0,0,0,0,0,0,0,0,0,0,0,0,0,0,0,0,0,0,0,0,0,0,0,0,0,0,0,0,0,0,0,0,0,0,0,0,0,0,0,0,0,0,0,0,0,0,0],"sum_hessian":[2.5709948E5,1.5422542E5,1.0287407E5,1.4496338E5,9.262036E3,8.387239E3,9.4486836E4,1.3704955E5,7.913836E3,3.6209023E3,5.641134E3,3.6097832E3,4.7774565E3,7.9946064E3,8.649223E4,1.29076586E5,7.972958E3,6.348358E2,7.279E3,1.6632285E3,1.957674E3,2.6076013E3,3.0335325E3,1.223106E3,2.3866772E3,5.1343695E2,4.2640195E3,7.925452E3,6.9154465E1,1.5180805E4,7.131142E4,9.764895E4,3.1427627E4,2.2735417E0,7.9706846E3,6.152377E2,1.959817E1,4.126224E3,3.152776E3,1.3582963E3,3.0493225E2,1.9468013E3,1.0872676E1,4.320769E2,2.1755244E3,1.56591E1,3.0178733E3,1.3229863E2,1.0908073E3,2.2896257E3,9.705156E1,4.8393726E1,4.6504324E2,3.8911318E3,3.7288788E2,1.3870735E2,7.7867446E3,5.149133E1,1.766314E1,3.3632378E1,1.5147173E4,3.380449E1,7.127762E4],"tree_param":{"num_deleted":"0","num_feature":"10","num_nodes":"63","size_leaf_vector":"0"}},{"base_weights":[9.681215E-2,6.3113874E-1,-5.312337E-1,6.792209E-1,2.7650237E-1,-1.4806032E-1,-5.6745356E-1,6.9146633E-1,5.636628E-1,3.6533883E-1,1.3502431E-1,-2.4278874E-2,-2.4639925E-1,-4.3213782E-1,-5.7833046E-1,6.9823915E-1,6.7060006E-1,5.91282E-1,5.1114696E-1,4.2448977E-1,3.0643126E-1,2.2452515E-1,5.538383E-2,3.3501995E-1,-5.475983E-2,-2.7067035E-1,2.7345014E-1,3.494437E-1,-4.425678E-1,-5.7877815E-1,2.2520836E-2,7.006011E-1,6.9259316E-1,6.7791855E-1,6.4831746E-1,6.0386264E-1,5.3693694E-1,5.679979E-1,4.8006916E-1,4.397995E-1,2.2639632E-1,5.0053144E-1,2.7766344E-1,2.0605066E-1,6.051102E-1,7.158592E-1,4.1888308E-2,8.9340717E-1,2.7382284E-1,-8.655526E-2,3.042958E-1,2.875231E-1,-2.8948832E-1,1.9004539E-1,1.0798163E0,8.884899E-1,1.7903575E-1,-2.671474E-1,-4.771308E-1,-5.264184E-1,-5.830243E-1,7.571527E-1,-3.5683754E-1],"categories":[],"categories_nodes":[],"categories_segments":[],"categories_sizes":[],"default_left":[1,1,1,1,1,1,1,1,1,1,1,1,1,1,1,1,1,1,1,1,1,1,1,1,1,1,1,1,1,1,1,0,0,0,0,0,0,0,0,0,0,0,0,0,0,0,0,0,0,0,0,0,0,0,0,0,0,0,0,0,0,0,0],"id":9,"left_children":[1,3,5,7,9,11,13,15,17,19,21,23,25,27,29,31,33,35,37,39,41,43,45,47,49,51,53,55,57,59,61,-1,-1,-1,-1,-1,-1,-1,-1,-1,-1,-1,-1,-1,-1,-1,-1,-1,-1,-1,-1,-1,-1,-1,-1,-1,-1,-1,-1,-1,-1,-1,-1],"loss_changes":[7.726396E4,2.1210664E3,1.4687832E3,1.546211E2,1.8664734E2,1.1127255E2,1.420664E2,1.353125E1,1.4929932E1,3.1662598E1,4.0838997E1,4.435579E1,6.435089E1,5.883435E1,2.409375E1,5.15625E-1,3.522461E0,4.376709E0,6.135315E0,1.3699829E1,2.5407715E1,1.8846817E1,2.701334E1,1.0578541E1,4.264003E1,5.121286E1,1.51111355E1,8.599842E0,4.294409E1,1.9578125E1,1.9110601E1,0E0,0E0,0E0,0E0,0E0,0E0,0E0,0E0,0E0,0E0,0E0,0E0,0E0,0E0,0E0,0E0,0E0,0E0,0E0,0E0,0E0,0E0,0E0,0E0,0E0,0E0,0E0,0E0,0E0,0E0,0E0,0E0],"parents":[2147483647,0,0,1,1,2,2,3,3,4,4,5,5,6,6,7,7,8,8,9,9,10,10,11,11,12,12,13,13,14,14,15,15,16,16,17,17,18,18,19,19,20,20,21,21,22,22,23,23,24,24,25,25,26,26,27,27,28,28,29,29,30,30],"right_children":[2,4,6,8,10,12,14,16,18,20,22,24,26,28,30,32,34,36,38,40,42,44,46,48,50,52,54,56,58,60,62,-1,-1,-1,-1,-1,-1,-1,-1,-1,-1,-1,-1,-1,-1,-1,-1,-1,-1,-1,-1,-1,-1,-1,-1,-1,-1,-1,-1,-1,-1,-1,-1],"split_conditions":[5.9914582E-6,5.730428E-6,6.20255E-6,5.523915E-6,5.8886117E-6,6.0774782E-6,6.4168134E-6,4.9568466E-6,5.662446E-6,5.810063E-6,6.77084E-2,-1.4230752E0,1.7384646E0,-2.5034263E0,4.8501287E0,4.2103284E-6,5.3995886E-6,4.4441555E4,2.1936477E4,3.532495E3,-6.5068134E-6,9.617197E-6,-2.024445E0,-2.9026299E0,1.4232261E0,-1.85267E0,3.2336202E0,-2.2251612E-5,5.354611E-2,4.14825E-2,7.824651E-6,2.1018034E-1,2.0777796E-1,2.0337558E-1,1.9449525E-1,1.811588E-1,1.6108109E-1,1.7039937E-1,1.4402075E-1,1.3193986E-1,6.79189E-2,1.5015943E-1,8.329903E-2,6.1815202E-2,1.8153307E-1,2.1475776E-1,1.2566493E-2,2.6802215E-1,8.214685E-2,-2.596658E-2,9.1288745E-2,8.625693E-2,-8.68465E-2,5.701362E-2,3.2394493E-1,2.66547E-1,5.371073E-2,-8.014422E-2,-1.4313924E-1,-1.5792552E-1,-1.749073E-1,2.271458E-1,-1.0705127E-1],"split_indices":[6,6,6,6,6,6,6,6,6,6,3,5,5,5,5,6,6,0,0,1,4,4,5,5,5,5,5,4,3,2,6,0,0,0,0,0,0,0,0,0,0,0,0,0,0,0,0,0,0,0,0,0,0,0,0,0,0,0,0,0,0,0,0],"split_type":[0,0,0,0,0,0,0,0,0,0,0,0,0,0,0,0,0,0,0,0,0,0,0,0,0,0,0,0,0,0,0,0,0,0,0,0,0,0,0,0,0,0,0,0,0,0,0,0,0,0,0,0,0,0,0,0,0,0,0,0,0,0,0],"sum_hessian":[2.3023697E5,1.2440021E5,1.0583676E5,1.0954677E5,1.4853435E4,9.140768E3,9.669599E4,9.9046086E4,1.050069E4,9.123226E3,5.7302095E3,4.0474263E3,5.093341E3,7.197293E3,8.94987E4,7.475094E4,2.4295145E4,6.874818E3,3.6258723E3,4.5491123E3,4.574114E3,2.6972222E3,3.032987E3,3.1572928E2,3.731697E3,4.866605E3,2.267362E2,9.435303E1,7.10294E3,8.943209E4,6.660381E1,5.26161E4,2.2134838E4,1.8266336E4,6.028808E3,5.5742847E3,1.300533E3,1.2754321E3,2.3504402E3,4.221623E3,3.274892E2,5.883102E2,3.9858035E3,2.5738242E3,1.23398094E2,5.9690105E1,2.9732969E3,2.98418E1,2.8588748E2,3.4288235E3,3.028734E2,1.582479E2,4.708357E3,2.0660242E2,2.0133795E1,2.1651045E1,7.270199E1,1.170571E3,5.932369E3,6.7178594E3,8.2714234E4,2.2342134E1,4.4261677E1],"tree_param":{"num_deleted":"0","num_feature":"10","num_nodes":"63","size_leaf_vector":"0"}},{"base_weights":[-5.6023218E-2,-5.4260004E-1,1.5389168E-1,-5.6746197E-1,-3.3363765E-1,4.9186566E-1,-5.0919205E-1,-5.7655275E-1,-5.1450515E-1,-3.8495213E-1,-2.4616599E-1,1.1567098E-1,5.616802E-1,-2.0739038E-1,-5.518989E-1,-5.8100843E-1,-5.554813E-1,-5.3014886E-1,-4.8297343E-1,-4.2203078E-1,-3.4417582E-1,-3.300393E-1,-2.0186554E-1,-3.4840927E-2,2.4364217E-1,6.2398016E-1,2.704836E-1,-2.2828E-1,2.0504887E-1,-4.6466914E-1,-5.71403E-1,-5.8302253E-1,-5.7490027E-1,1.5904586E-1,-5.555877E-1,-5.4578894E-1,-5.110773E-1,-4.842169E-1,4.487734E-1,-4.2923728E-1,-1.96413E-1,3.2287064E-1,-3.6139277E-1,-2.4168667E-1,-4.1266397E-1,1.2643847E-1,-2.459681E-1,-1.2225442E-1,3.2470178E-2,-1.3543303E-1,2.6506385E-1,4.8038697E-1,6.4650923E-1,3.4795758E-1,9.962021E-2,9.750059E-2,-2.5694767E-1,8.317612E-2,6.2288064E-1,-4.7213727E-1,7.463448E-1,-5.7203484E-1,3.141554E-1],"categories":[],"categories_nodes":[],"categories_segments":[],"categories_sizes":[],"default_left":[1,1,1,1,1,1,1,1,1,1,1,1,1,1,1,1,1,1,1,1,1,1,1,1,1,1,1,1,1,1,1,0,0,0,0,0,0,0,0,0,0,0,0,0,0,0,0,0,0,0,0,0,0,0,0,0,0,0,0,0,0,0,0],"id":10,"left_children":[1,3,5,7,9,11,13,15,17,19,21,23,25,27,29,31,33,35,37,39,41,43,45,47,49,51,53,55,57,59,61,-1,-1,-1,-1,-1,-1,-1,-1,-1,-1,-1,-1,-1,-1,-1,-1,-1,-1,-1,-1,-1,-1,-1,-1,-1,-1,-1,-1,-1,-1,-1,-1],"loss_changes":[2.2687732E4,3.4760742E2,3.477661E4,2.850586E1,3.1866577E1,2.6995547E3,6.7516016E2,4.46875E0,4.0720215E0,6.637329E0,9.725998E0,3.0993817E2,1.5726719E3,5.6016907E1,7.7819336E1,1.8359375E-1,7.67334E-1,1.4672852E0,3.6015015E0,3.7287292E0,2.4715652E1,6.5385284E0,2.5039177E1,4.3516056E1,7.065735E1,2.3072852E2,2.0225269E2,5.777594E1,1.5922293E1,7.625171E1,2.116504E1,0E0,0E0,0E0,0E0,0E0,0E0,0E0,0E0,0E0,0E0,0E0,0E0,0E0,0E0,0E0,0E0,0E0,0E0,0E0,0E0,0E0,0E0,0E0,0E0,0E0,0E0,0E0,0E0,0E0,0E0,0E0,0E0],"parents":[2147483647,0,0,1,1,2,2,3,3,4,4,5,5,6,6,7,7,8,8,9,9,10,10,11,11,12,12,13,13,14,14,15,15,16,16,17,17,18,18,19,19,20,20,21,21,22,22,23,23,24,24,25,25,26,26,27,27,28,28,29,29,30,30],"right_children":[2,4,6,8,10,12,14,16,18,20,22,24,26,28,30,32,34,36,38,40,42,44,46,48,50,52,54,56,58,60,62,-1,-1,-1,-1,-1,-1,-1,-1,-1,-1,-1,-1,-1,-1,-1,-1,-1,-1,-1,-1,-1,-1,-1,-1,-1,-1,-1,-1,-1,-1,-1,-1],"split_conditions":[5.7325024E-6,5.523915E-6,7.986486E-6,5.2160963E-6,5.662446E-6,6.0383054E-6,8.267394E-6,4.8108877E-6,5.4285265E-6,3.076196E4,2.1936477E4,5.8886117E-6,7.588868E-6,1.7594669E0,8.803547E-6,4.2103225E-6,4.810935E-6,2.945976E4,8.10035E-2,7.6488E-2,3.181592E4,1.8931875E4,1.690725E3,5.8070527E-6,-9.074072E-6,6.2034765E-6,7.845672E-6,-1.4410163E0,2.6325521E0,2.8635993E0,5.037162E0,-1.7490676E-1,-1.724701E-1,4.771376E-2,-1.6667631E-1,-1.6373669E-1,-1.5332319E-1,-1.4526507E-1,1.3463204E-1,-1.2877119E-1,-5.89239E-2,9.68612E-2,-1.0841783E-1,-7.2506E-2,-1.237992E-1,3.7931543E-2,-7.379043E-2,-3.6676325E-2,9.741054E-3,-4.0629912E-2,7.951916E-2,1.441161E-1,1.9395278E-1,1.04387276E-1,2.9886063E-2,2.9250178E-2,-7.70843E-2,2.4952838E-2,1.868642E-1,-1.4164118E-1,2.2390345E-1,-1.7161046E-1,9.4246626E-2],"split_indices":[6,6,6,6,6,6,6,6,6,0,0,6,6,5,6,6,6,0,2,2,0,0,1,6,4,6,6,5,5,5,5,0,0,0,0,0,0,0,0,0,0,0,0,0,0,0,0,0,0,0,0,0,0,0,0,0,0,0,0,0,0,0,0],"split_type":[0,0,0,0,0,0,0,0,0,0,0,0,0,0,0,0,0,0,0,0,0,0,0,0,0,0,0,0,0,0,0,0,0,0,0,0,0,0,0,0,0,0,0,0,0,0,0,0,0,0,0,0,0,0,0,0,0,0,0,0,0,0,0],"sum_hessian":[2.2212266E5,6.694483E4,1.5517783E5,5.982523E4,7.1196E3,1.0278734E5,5.2390484E4,5.1051625E4,8.7736045E3,4.4850723E3,2.6345276E3,1.6089887E4,8.669745E4,6.4952935E3,4.589519E4,4.2118844E4,8.932784E3,5.85364E3,2.9199644E3,2.3441472E3,2.1409253E3,9.0833734E2,1.7261903E3,7.394112E3,8.695774E3,7.141702E4,1.5280431E4,6.1825977E3,3.1269556E2,8.391232E3,3.7503957E4,3.1603354E4,1.0515489E4,1.1074648E0,8.931677E3,3.2009834E3,2.652657E3,2.9165522E3,3.4119942E0,2.270715E3,7.343203E1,5.342173E1,2.0875034E3,4.4085028E2,4.6748703E2,2.0420445E2,1.5219858E3,3.2163657E3,4.177746E3,4.648327E2,8.230942E3,9.688406E3,6.172862E4,1.0512673E4,4.767758E3,4.9985233E2,5.6827456E3,2.4301286E2,6.9682686E1,8.340409E3,5.082381E1,3.7477574E4,2.63865E1],"tree_param":{"num_deleted":"0","num_feature":"10","num_nodes":"63","size_leaf_vector":"0"}},{"base_weights":[-4.5306392E-2,-5.4288524E-1,6.210578E-1,-5.727762E-1,-1.9144852E-1,2.6497877E-1,6.753413E-1,-5.798472E-1,-4.8890924E-1,-3.2766262E-1,-9.4321795E-2,1.3223416E-1,3.626547E-1,5.677212E-1,6.8886405E-1,-5.826616E-1,-5.635723E-1,-3.355095E-1,-5.0419545E-1,7.4661694E-2,-3.3502933E-1,-3.4729832E-1,-7.4121885E-2,-2.793959E-1,1.499722E-1,1.3243932E-1,3.9053485E-1,5.765512E-1,1.5874186E-1,6.8983746E-1,3.002392E-1,-5.828402E-1,-5.3333545E-1,-5.284297E-1,-5.710207E-1,-4.362225E-1,-2.2304738E-1,-5.272982E-1,-4.6285033E-1,-1.4620028E-1,1.334976E0,-3.4198073E-1,7.810413E-2,-5.5339426E-1,-2.9469883E-1,-4.4229686E-2,-2.8111032E-1,-3.3792925E-1,9.4060004E-2,1.6238216E-1,-4.1126695E-1,-4.1825485E-1,1.6913684E-1,4.1351014E-1,6.1255626E-2,-7.077287E-2,5.817482E-1,2.3115417E-1,-5.3788406E-1,5.733002E-2,6.9035923E-1,-6.1971015E-1,4.4986877E-1],"categories":[],"categories_nodes":[],"categories_segments":[],"categories_sizes":[],"default_left":[1,1,1,1,1,1,1,1,1,1,1,1,1,1,1,1,1,1,1,1,1,1,1,1,1,1,1,1,1,1,1,0,0,0,0,0,0,0,0,0,0,0,0,0,0,0,0,0,0,0,0,0,0,0,0,0,0,0,0,0,0,0,0],"id":11,"left_children":[1,3,5,7,9,11,13,15,17,19,21,23,25,27,29,31,33,35,37,39,41,43,45,47,49,51,53,55,57,59,61,-1,-1,-1,-1,-1,-1,-1,-1,-1,-1,-1,-1,-1,-1,-1,-1,-1,-1,-1,-1,-1,-1,-1,-1,-1,-1,-1,-1,-1,-1,-1,-1],"loss_changes":[7.205512E4,1.3068359E3,1.7955352E3,6.771484E1,1.290138E2,1.5931396E2,1.1692578E2,4.5195312E0,2.0751953E1,1.2056885E1,2.9077911E1,3.8095024E1,4.539154E1,3.2424805E1,2.6878906E1,4.8242188E-1,3.7871094E0,9.094055E0,7.5039062E0,2.0741726E1,1.1476227E1,4.399338E0,3.2628555E1,4.745903E0,3.4870804E1,1.5557517E1,4.7747925E1,2.9690186E1,9.79311E0,2.3527344E1,2.5149242E1,0E0,0E0,0E0,0E0,0E0,0E0,0E0,0E0,0E0,0E0,0E0,0E0,0E0,0E0,0E0,0E0,0E0,0E0,0E0,0E0,0E0,0E0,0E0,0E0,0E0,0E0,0E0,0E0,0E0,0E0,0E0,0E0],"parents":[2147483647,0,0,1,1,2,2,3,3,4,4,5,5,6,6,7,7,8,8,9,9,10,10,11,11,12,12,13,13,14,14,15,15,16,16,17,17,18,18,19,19,20,20,21,21,22,22,23,23,24,24,25,25,26,26,27,27,28,28,29,29,30,30],"right_children":[2,4,6,8,10,12,14,16,18,20,22,24,26,28,30,32,34,36,38,40,42,44,46,48,50,52,54,56,58,60,62,-1,-1,-1,-1,-1,-1,-1,-1,-1,-1,-1,-1,-1,-1,-1,-1,-1,-1,-1,-1,-1,-1,-1,-1,-1,-1,-1,-1,-1,-1,-1,-1],"split_conditions":[7.758644E-6,7.41263E-6,8.099367E-6,7.0506094E-6,7.5758444E-6,7.8972225E-6,8.406994E-6,6.49323E-6,4.1529465E-2,2.5715E-2,-1.364465E0,-1.64041E0,-1.1729879E0,2.0798857E0,3.242859E0,2.7231774E-6,5.885857E-2,3.0163E-2,7.2868925E-6,2.5108501E-2,8.2334995E-2,-2.1969872E0,1.0977137E0,-1.26602135E-5,2.004993E0,-2.5705926E0,1.543899E0,-2.087127E-5,2.9370678E-5,-4.800232E0,8.814213E-6,-1.7485207E-1,-1.6000064E-1,-1.5852891E-1,-1.7130622E-1,-1.3086675E-1,-6.6914216E-2,-1.5818948E-1,-1.388551E-1,-4.3860085E-2,4.0049282E-1,-1.0259422E-1,2.343124E-2,-1.6601828E-1,-8.8409655E-2,-1.3268907E-2,-8.43331E-2,-1.01378776E-1,2.8218003E-2,4.871465E-2,-1.2338009E-1,-1.2547646E-1,5.0741054E-2,1.24053046E-1,1.837669E-2,-2.1231862E-2,1.7452446E-1,6.934626E-2,-1.6136523E-1,1.7199006E-2,2.0710778E-1,-1.8591306E-1,1.3496064E-1],"split_indices":[6,6,6,6,6,6,6,6,3,2,5,5,5,5,5,9,3,2,6,2,2,5,5,4,5,5,5,4,4,5,6,0,0,0,0,0,0,0,0,0,0,0,0,0,0,0,0,0,0,0,0,0,0,0,0,0,0,0,0,0,0,0,0],"split_type":[0,0,0,0,0,0,0,0,0,0,0,0,0,0,0,0,0,0,0,0,0,0,0,0,0,0,0,0,0,0,0,0,0,0,0,0,0,0,0,0,0,0,0,0,0,0,0,0,0,0,0,0,0,0,0,0,0,0,0,0,0,0,0],"sum_hessian":[2.1731377E5,1.2441351E5,9.290026E4,1.14660586E5,9.752922E3,1.2289795E4,8.061046E4,1.0573955E5,8.921037E3,4.0586074E3,5.694315E3,5.2106772E3,7.0791177E3,9.00305E3,7.1607414E4,9.012012E4,1.5619427E4,8.104985E2,8.110539E3,7.281407E1,3.9857935E3,4.1986624E2,5.2744487E3,2.1465399E2,4.9960234E3,7.6532623E2,6.3137915E3,8.812377E3,1.9067235E2,7.1427734E4,1.7967682E2,8.9784234E4,3.358844E2,2.7441475E3,1.2875279E4,4.2606583E2,3.8443265E2,5.195596E3,2.9149429E3,6.2708763E1,1.0105311E1,3.9200073E3,6.578598E1,8.343388E1,3.3643234E2,4.6099214E3,6.645273E2,1.856512E2,2.9002787E1,4.8886377E3,1.0738541E2,4.7164482E1,7.181618E2,5.9017446E3,4.1204675E2,7.008569E1,8.742292E3,1.7332399E2,1.7348362E1,5.8965576E1,7.136877E4,2.4696527E1,1.549803E2],"tree_param":{"num_deleted":"0","num_feature":"10","num_nodes":"63","size_leaf_vector":"0"}},{"base_weights":[8.5588425E-2,5.459355E-1,-5.087056E-1,6.1322534E-1,2.1605173E-1,-1.9747931E-1,-5.4769856E-1,6.258605E-1,4.999229E-1,2.9595998E-1,8.4314264E-2,-7.192681E-2,-2.7796057E-1,-4.620668E-1,-5.572687E-1,6.3334984E-1,6.015258E-1,5.335816E-1,4.6782646E-1,3.5689908E-1,2.3475428E-1,1.757224E-1,6.877664E-3,2.845458E-1,-1.16041385E-1,2.1649206E-1,-2.9449904E-1,1.6194623E0,-4.6542284E-1,-5.577022E-1,1.9481395E-1,6.361517E-1,6.2667507E-1,6.0966307E-1,5.8346206E-1,5.833505E-1,5.0792587E-1,3.9499304E-1,4.8578045E-1,5.645912E-1,3.4512526E-1,2.7108756E-1,1.1121022E-1,1.4065705E-1,4.5352855E-1,1.802362E-1,-3.9362542E-2,4.641118E-2,4.9921852E-1,-1.4798872E-1,4.2043254E-1,7.570127E-1,1.2039606E-1,-3.0599964E-1,4.2688212E-1,2.2209494E0,7.1103054E-1,-4.7053596E-1,8.334321E-1,2.3047559E-1,-5.5800116E-1,8.576996E-1,-2.1319138E-1],"categories":[],"categories_nodes":[],"categories_segments":[],"categories_sizes":[],"default_left":[1,1,1,1,1,1,1,1,1,1,1,1,1,1,1,1,1,1,1,1,1,1,1,1,1,1,1,1,1,1,1,0,0,0,0,0,0,0,0,0,0,0,0,0,0,0,0,0,0,0,0,0,0,0,0,0,0,0,0,0,0,0,0],"id":12,"left_children":[1,3,5,7,9,11,13,15,17,19,21,23,25,27,29,31,33,35,37,39,41,43,45,47,49,51,53,55,57,59,61,-1,-1,-1,-1,-1,-1,-1,-1,-1,-1,-1,-1,-1,-1,-1,-1,-1,-1,-1,-1,-1,-1,-1,-1,-1,-1,-1,-1,-1,-1,-1,-1],"loss_changes":[5.244949E4,2.3979316E3,1.0154375E3,1.2814453E2,1.9266437E2,9.414188E1,6.0683594E1,1.4328125E1,9.481445E0,4.24104E1,4.892682E1,5.7296856E1,4.649759E1,5.3016235E1,2.1916016E1,7.578125E-1,2.4394531E0,5.3084717E0,5.8478394E0,1.3760803E1,2.549759E1,3.0817818E1,3.0013206E1,2.0491772E1,5.561167E1,9.484646E0,4.571808E1,5.123108E0,5.000244E1,1.5878906E1,1.0804752E1,0E0,0E0,0E0,0E0,0E0,0E0,0E0,0E0,0E0,0E0,0E0,0E0,0E0,0E0,0E0,0E0,0E0,0E0,0E0,0E0,0E0,0E0,0E0,0E0,0E0,0E0,0E0,0E0,0E0,0E0,0E0,0E0],"parents":[2147483647,0,0,1,1,2,2,3,3,4,4,5,5,6,6,7,7,8,8,9,9,10,10,11,11,12,12,13,13,14,14,15,15,16,16,17,17,18,18,19,19,20,20,21,21,22,22,23,23,24,24,25,25,26,26,27,27,28,28,29,29,30,30],"right_children":[2,4,6,8,10,12,14,16,18,20,22,24,26,28,30,32,34,36,38,40,42,44,46,48,50,52,54,56,58,60,62,-1,-1,-1,-1,-1,-1,-1,-1,-1,-1,-1,-1,-1,-1,-1,-1,-1,-1,-1,-1,-1,-1,-1,-1,-1,-1,-1,-1,-1,-1,-1,-1],"split_conditions":[6.035995E-6,5.69789E-6,6.3012444E-6,5.4919856E-6,5.903801E-6,6.7127824E-2,6.592773E-6,4.9568466E-6,5.5940345E-6,5.8060223E-6,6.77075E-2,-1.3884903E-6,-1.9370065E0,-2.420368E-5,5.388641E0,4.2103225E-6,5.342481E-6,1.30523E3,4.7759E-2,-1.5739057E0,7.25088E-2,1.3772852E-6,-8.3086616E-1,3.0964844E4,1.7230663E0,-3.02664E0,2.33744E0,-2.615064E-5,2.0205362E-5,-5.872237E0,8.294546E-6,1.908455E-1,1.8800253E-1,1.8289892E-1,1.7503862E-1,1.7500515E-1,1.5237777E-1,1.18497916E-1,1.4573415E-1,1.6937737E-1,1.0353758E-1,8.132627E-2,3.3363067E-2,4.2197116E-2,1.3605857E-1,5.4070864E-2,-1.1808763E-2,1.3923354E-2,1.4976557E-1,-4.4396617E-2,1.2612976E-1,2.2710383E-1,3.611882E-2,-9.179989E-2,1.2806465E-1,6.6628486E-1,2.1330917E-1,-1.411608E-1,2.5002962E-1,6.914268E-2,-1.6740036E-1,2.5730988E-1,-6.3957416E-2],"split_indices":[6,6,6,6,6,3,6,6,6,6,2,8,5,4,5,6,6,1,2,5,3,8,5,0,5,5,5,4,4,5,6,0,0,0,0,0,0,0,0,0,0,0,0,0,0,0,0,0,0,0,0,0,0,0,0,0,0,0,0,0,0,0,0],"split_type":[0,0,0,0,0,0,0,0,0,0,0,0,0,0,0,0,0,0,0,0,0,0,0,0,0,0,0,0,0,0,0,0,0,0,0,0,0,0,0,0,0,0,0,0,0,0,0,0,0,0,0,0,0,0,0,0,0,0,0,0,0,0,0],"sum_hessian":[1.917123E5,1.0803061E5,8.368169E4,8.9727164E4,1.8303445E4,9.317689E3,7.436399E4,8.072086E4,9.006305E3,1.139208E4,6.911364E3,3.640432E3,5.677258E3,7.4803267E3,6.6883664E4,6.170522E4,1.901564E4,4.388535E3,4.617769E3,5.7060527E3,5.686028E3,3.1691497E3,3.742214E3,4.0030154E2,3.2401304E3,1.8335582E2,5.4939023E3,1.1266006E1,7.469061E3,6.684539E4,3.8273323E1,4.339525E4,1.8309969E4,1.3087333E4,5.928308E3,1.4853708E3,2.9031643E3,9.177513E2,3.7000178E3,3.0359702E2,5.4024556E3,4.3929136E3,1.2931143E3,2.815302E3,3.5384775E2,7.8737585E2,2.9548381E3,1.9035667E2,2.0994485E2,3.0587068E3,1.8142365E2,2.6639017E1,1.567168E2,5.408257E3,8.5645096E1,5.9088473E0,5.357159E0,7.440408E3,2.8652456E1,2.5052542E1,6.682034E4,1.4162063E1,2.411126E1],"tree_param":{"num_deleted":"0","num_feature":"10","num_nodes":"63","size_leaf_vector":"0"}},{"base_weights":[-4.6276357E-2,-5.177754E-1,1.331891E-1,-5.414783E-1,-3.1929526E-1,4.0003794E-1,-4.7941414E-1,-5.554037E-1,-4.9725407E-1,-3.7151325E-1,-2.6806298E-1,8.9385875E-2,4.747821E-1,-2.204646E-1,-5.28327E-1,-5.587369E-1,-5.4439795E-1,-5.1080966E-1,-4.6048808E-1,-4.5020574E-1,-3.3209327E-1,-1.6388024E-1,-2.9411113E-1,-2.309271E-2,2.1057679E-1,5.491745E-1,2.1066025E-1,-3.3790636E-1,-1.4448012E-1,-4.3913844E-1,-5.441182E-1,1.631326E-1,-5.445175E-1,-4.9063963E-1,-5.223369E-1,-4.617217E-1,7.7674145E-1,-3.982448E-1,-5.238311E-1,5.608956E-2,-3.5998535E-1,-1.9568004E-1,6.507427E-1,-4.222603E-1,-2.5232142E-1,-1.1322588E-1,4.2373467E-2,1.17013626E-1,2.877421E-1,4.3309563E-1,5.776824E-1,3.249758E-1,1.2258288E-1,-6.2036216E-3,-4.046253E-1,2.1799107E-1,-1.7175859E-1,-4.4416842E-1,1.1959206E0,1.6808838E-1,-5.4506135E-1],"categories":[],"categories_nodes":[],"categories_segments":[],"categories_sizes":[],"default_left":[1,1,1,1,1,1,1,1,1,1,1,1,1,1,1,0,1,1,1,1,1,1,1,1,1,1,1,1,1,1,1,0,0,0,0,0,0,0,0,0,0,0,0,0,0,0,0,0,0,0,0,0,0,0,0,0,0,0,0,0,0],"id":13,"left_children":[1,3,5,7,9,11,13,15,17,19,21,23,25,27,29,-1,31,33,35,37,39,41,43,45,47,49,51,53,55,57,59,-1,-1,-1,-1,-1,-1,-1,-1,-1,-1,-1,-1,-1,-1,-1,-1,-1,-1,-1,-1,-1,-1,-1,-1,-1,-1,-1,-1,-1,-1],"loss_changes":[1.5881145E4,2.4324902E2,2.2222484E4,2.8188477E1,1.4674072E1,2.1986523E3,5.223281E2,9.863281E-1,5.2856445E0,8.326172E0,7.5261383E0,2.5035776E2,1.4996113E3,5.844763E1,4.8624023E1,0E0,7.8344727E-1,1.6237793E0,4.928772E0,3.2692413E0,1.977118E1,1.4647438E1,1.1844177E1,5.621608E1,6.3794556E1,1.9681836E2,1.6886517E2,5.696982E1,3.9408188E1,4.349414E1,1.9887695E1,0E0,0E0,0E0,0E0,0E0,0E0,0E0,0E0,0E0,0E0,0E0,0E0,0E0,0E0,0E0,0E0,0E0,0E0,0E0,0E0,0E0,0E0,0E0,0E0,0E0,0E0,0E0,0E0,0E0,0E0],"parents":[2147483647,0,0,1,1,2,2,3,3,4,4,5,5,6,6,7,7,8,8,9,9,10,10,11,11,12,12,13,13,14,14,16,16,17,17,18,18,19,19,20,20,21,21,22,22,23,23,24,24,25,25,26,26,27,27,28,28,29,29,30,30],"right_children":[2,4,6,8,10,12,14,16,18,20,22,24,26,28,30,-1,32,34,36,38,40,42,44,46,48,50,52,54,56,58,60,-1,-1,-1,-1,-1,-1,-1,-1,-1,-1,-1,-1,-1,-1,-1,-1,-1,-1,-1,-1,-1,-1,-1,-1,-1,-1,-1,-1,-1,-1],"split_conditions":[5.690148E-6,5.4919856E-6,8.0242135E-6,4.9579257E-6,5.5940345E-6,6.0566153E-6,8.374742E-6,4.3809428E-6,5.3657977E-6,1.30523E3,4.7759E-2,5.903801E-6,7.5641588E-6,5.8952E-2,8.803547E-6,-1.6762108E-1,4.381057E-6,4.41815E-2,8.0974504E-2,5.423055E-2,4.36485E-2,2.08833E3,1.358435E3,5.79502E-6,6.77075E-2,6.287148E-6,7.755348E-6,5.0010003E-2,-2.4504384E-6,3.135103E-5,-4.800232E0,4.893978E-2,-1.6335526E-1,-1.471919E-1,-1.5670107E-1,-1.3851652E-1,2.3302244E-1,-1.1947344E-1,-1.5714934E-1,1.682687E-2,-1.0799561E-1,-5.8704015E-2,1.9522282E-1,-1.266781E-1,-7.569643E-2,-3.3967763E-2,1.2712041E-2,3.510409E-2,8.6322635E-2,1.299287E-1,1.7330472E-1,9.749274E-2,3.6774866E-2,-1.8610866E-3,-1.2138759E-1,6.539732E-2,-5.152758E-2,-1.3325053E-1,3.5877618E-1,5.0426517E-2,-1.6351841E-1],"split_indices":[6,6,6,6,6,6,6,6,6,1,2,6,6,2,6,0,6,2,2,3,2,1,1,6,2,6,6,2,8,4,5,0,0,0,0,0,0,0,0,0,0,0,0,0,0,0,0,0,0,0,0,0,0,0,0,0,0,0,0,0,0],"split_type":[0,0,0,0,0,0,0,0,0,0,0,0,0,0,0,0,0,0,0,0,0,0,0,0,0,0,0,0,0,0,0,0,0,0,0,0,0,0,0,0,0,0,0,0,0,0,0,0,0,0,0,0,0,0,0,0,0,0,0,0,0],"sum_hessian":[1.8767908E5,5.1741027E4,1.3593805E5,4.6219668E4,5.5213604E3,9.469112E4,4.124693E4,3.5142367E4,1.1077302E4,2.7312805E3,2.7900798E3,1.8364924E4,7.6326195E4,6.554144E3,3.469279E4,2.6935027E4,8.207339E3,8.083887E3,2.993415E3,9.080855E2,1.8231951E3,5.595166E2,2.2305632E3,9.525247E3,8.839676E3,5.9551797E4,1.6774402E4,2.5733389E3,3.9808052E3,5.2228853E3,2.9469902E4,1.1563827E0,8.206182E3,2.9556792E3,5.128208E3,2.9910596E3,2.3554547E0,5.361254E2,3.7196005E2,1.22152374E2,1.7010427E3,5.39227E2,2.0289595E1,5.462791E2,1.684284E3,4.0073035E3,5.517944E3,3.9964663E3,4.843209E3,1.1744898E4,4.78069E4,7.298716E3,9.475687E3,4.311094E2,2.1422295E3,2.7812616E2,3.7026792E3,5.2075933E3,1.529193E1,3.8738445E1,2.9431164E4],"tree_param":{"num_deleted":"0","num_feature":"10","num_nodes":"61","size_leaf_vector":"0"}},{"base_weights":[-4.296354E-2,-5.1047224E-1,5.439264E-1,-5.462276E-1,-1.4111306E-1,2.3239495E-1,6.1001563E-1,-5.548638E-1,-4.4425708E-1,-2.6849473E-1,-6.364675E-2,1.446623E-1,3.448923E-1,5.332257E-1,6.2695223E-1,-5.5853534E-1,-5.337154E-1,-2.68429E-1,-4.626608E-1,1.2592331E0,-2.7103522E-1,-3.140133E-1,-4.4597305E-2,-6.155579E-2,1.755108E-1,3.6329964E-1,6.1613172E-2,-6.192183E-1,5.359768E-1,6.272817E-1,-5.6201047E-1,-5.587566E-1,-4.9949926E-1,-4.771168E-1,-5.406566E-1,-3.3107173E-1,-4.3609474E-2,-4.934638E-1,-4.2192006E-1,-4.0052724E-1,2.328555E0,-2.7823025E-1,1.3861124E-1,-3.305609E-1,3.5263038E-1,-1.6708983E-2,-2.4399473E-1,1.0043868E-1,-1.5851852E-1,1.8787682E-1,-3.296688E-1,4.033315E-1,2.4343628E-1,1.2364756E-1,-3.7611905E-1,-7.661017E-1,-3.2744244E-1,5.4013205E-1,-2.0541747E-1,-1.4465571E-2,6.278947E-1,-1.0893042E0,2.730178E-1],"categories":[],"categories_nodes":[],"categories_segments":[],"categories_sizes":[],"default_left":[1,1,1,1,1,1,1,1,1,1,1,1,1,1,1,1,1,1,1,1,1,1,1,1,1,1,1,1,1,1,1,0,0,0,0,0,0,0,0,0,0,0,0,0,0,0,0,0,0,0,0,0,0,0,0,0,0,0,0,0,0,0,0],"id":14,"left_children":[1,3,5,7,9,11,13,15,17,19,21,23,25,27,29,31,33,35,37,39,41,43,45,47,49,51,53,55,57,59,61,-1,-1,-1,-1,-1,-1,-1,-1,-1,-1,-1,-1,-1,-1,-1,-1,-1,-1,-1,-1,-1,-1,-1,-1,-1,-1,-1,-1,-1,-1,-1,-1],"loss_changes":[4.9323246E4,1.3213574E3,1.6409102E3,8.00918E1,8.714058E1,1.3764532E2,8.51875E1,6.234375E0,2.2941772E1,1.3303894E1,2.6187325E1,4.9886017E1,3.184906E1,3.802588E1,2.1455078E1,6.5625E-1,4.6384277E0,9.531002E0,7.8878174E0,1.1087845E1,9.868591E0,4.3997498E0,2.8392025E1,1.6052345E1,4.2668137E1,2.7439758E1,1.0206013E1,9.8247147E-1,3.6650635E1,2.1195312E1,7.100561E0,0E0,0E0,0E0,0E0,0E0,0E0,0E0,0E0,0E0,0E0,0E0,0E0,0E0,0E0,0E0,0E0,0E0,0E0,0E0,0E0,0E0,0E0,0E0,0E0,0E0,0E0,0E0,0E0,0E0,0E0,0E0,0E0],"parents":[2147483647,0,0,1,1,2,2,3,3,4,4,5,5,6,6,7,7,8,8,9,9,10,10,11,11,12,12,13,13,14,14,15,15,16,16,17,17,18,18,19,19,20,20,21,21,22,22,23,23,24,24,25,25,26,26,27,27,28,28,29,29,30,30],"right_children":[2,4,6,8,10,12,14,16,18,20,22,24,26,28,30,32,34,36,38,40,42,44,46,48,50,52,54,56,58,60,62,-1,-1,-1,-1,-1,-1,-1,-1,-1,-1,-1,-1,-1,-1,-1,-1,-1,-1,-1,-1,-1,-1,-1,-1,-1,-1,-1,-1,-1,-1,-1,-1],"split_conditions":[7.753008E-6,7.4054888E-6,8.159839E-6,7.0506094E-6,7.5641588E-6,7.963585E-6,8.678813E-6,6.49324E-6,4.1529465E-2,5.29735E3,-1.3645227E0,-1.0382894E0,1.5509188E0,-3.456656E0,7.1121235E0,2.7231774E-6,4.1026E-2,7.3237065E-6,7.2556854E-6,1.1644E2,8.2334995E-2,-8.790743E-6,1.097774E0,6.06955E-2,2.0156043E0,2.4754102E3,2.179793E-5,8.473116E-6,2.8635993E0,-4.8860893E0,1.6639839E-5,-1.6762698E-1,-1.4984979E-1,-1.4313504E-1,-1.62197E-1,-9.932152E-2,-1.3082842E-2,-1.4803915E-1,-1.2657602E-1,-1.2015817E-1,6.9856656E-1,-8.346908E-2,4.1583374E-2,-9.916827E-2,1.0578912E-1,-5.012695E-3,-7.319842E-2,3.0131605E-2,-4.755556E-2,5.636305E-2,-9.890064E-2,1.2099945E-1,7.303089E-2,3.709427E-2,-1.1283572E-1,-2.2983052E-1,-9.823274E-2,1.6203962E-1,-6.1625242E-2,-4.3396717E-3,1.8836842E-1,-3.267913E-1,8.190534E-2],"split_indices":[6,6,6,6,6,6,6,6,3,0,5,5,5,5,5,9,2,6,6,1,2,4,5,2,5,1,4,6,5,5,6,0,0,0,0,0,0,0,0,0,0,0,0,0,0,0,0,0,0,0,0,0,0,0,0,0,0,0,0,0,0,0,0],"split_type":[0,0,0,0,0,0,0,0,0,0,0,0,0,0,0,0,0,0,0,0,0,0,0,0,0,0,0,0,0,0,0,0,0,0,0,0,0,0,0,0,0,0,0,0,0,0,0,0,0,0,0,0,0,0,0,0,0,0,0,0,0,0,0],"sum_hessian":[1.7976305E5,1.00058164E5,7.9704875E4,9.1226625E4,8.831546E3,1.3950321E4,6.5754555E4,8.409948E4,7.1271455E3,3.3388484E3,5.4926978E3,7.8391416E3,6.1111797E3,1.1887886E4,5.3866664E4,7.163728E4,1.2462195E4,6.767837E2,6.450362E3,4.7218227E0,3.3341265E3,3.872742E2,5.105424E3,1.01994543E3,6.819196E3,5.738042E3,3.731378E2,2.7777674E1,1.1860108E4,5.3852215E4,1.4451015E1,7.136139E4,2.7588803E2,1.3690126E3,1.1093183E4,5.289318E2,1.4785184E2,3.666844E3,2.7835178E3,2.0951893E0,2.6266332E0,3.2768918E3,5.7234623E1,3.7838596E2,8.888244E0,4.479931E3,6.254928E2,3.8189023E2,6.3805524E2,6.656874E3,1.6232204E2,4.2996753E3,1.4383665E3,3.274499E2,4.568791E1,1.7395117E1,1.0382558E1,1.1794278E4,6.583004E1,5.137025E1,5.3800844E4,8.671027E0,5.7799883E0],"tree_param":{"num_deleted":"0","num_feature":"10","num_nodes":"63","size_leaf_vector":"0"}},{"base_weights":[7.593389E-2,4.8164383E-1,-4.883102E-1,5.6934994E-1,1.777619E-1,-1.8809333E-1,-5.2935785E-1,5.839757E-1,4.6660417E-1,2.802533E-1,9.8814644E-2,-2.1234962E-1,2.804019E-1,-4.4956338E-1,-5.417231E-1,5.9204614E-1,5.5955327E-1,5.054545E-1,4.294706E-1,3.3980826E-1,2.42551E-1,7.485595E-2,3.2481968E-1,3.5814705E-1,-2.3335697E-1,2.0261103E-1,1.0645186E0,-2.3614062E-1,-4.8845157E-1,-5.4199064E-1,5.629434E-1,5.9480715E-1,5.8465695E-1,5.604273E-1,3.1754348E-1,5.133398E-1,3.9037243E-1,4.4534117E-1,3.6248842E-1,3.5781097E-1,1.6207245E-1,3.692323E-1,2.2045776E-1,2.501876E-1,3.7885007E-2,2.8208944E-1,8.111446E-1,8.193382E-1,2.3680516E-1,-1.441064E-1,-3.2831597E-1,3.5488376E-1,5.535132E-2,6.2735134E-1,1.2579863E0,-3.1504354E-1,5.183466E-1,1.1271526E0,-4.908551E-1,1.9301899E-1,-5.4237556E-1,1.1000191E0,-9.821864E-2],"categories":[],"categories_nodes":[],"categories_segments":[],"categories_sizes":[],"default_left":[1,1,1,1,1,1,1,1,1,1,1,1,1,1,1,1,1,1,1,1,1,1,1,1,1,1,1,1,1,1,1,0,0,0,0,0,0,0,0,0,0,0,0,0,0,0,0,0,0,0,0,0,0,0,0,0,0,0,0,0,0,0,0],"id":15,"left_children":[1,3,5,7,9,11,13,15,17,19,21,23,25,27,29,31,33,35,37,39,41,43,45,47,49,51,53,55,57,59,61,-1,-1,-1,-1,-1,-1,-1,-1,-1,-1,-1,-1,-1,-1,-1,-1,-1,-1,-1,-1,-1,-1,-1,-1,-1,-1,-1,-1,-1,-1,-1,-1],"loss_changes":[3.610337E4,2.4451016E3,8.128301E2,1.067168E2,1.6625092E2,9.024603E1,5.70166E1,1.1951172E1,1.2588867E1,1.999353E1,6.28406E1,9.052057E1,2.3640255E1,6.455701E1,1.5155273E1,6.09375E-1,3.1000977E0,3.7313232E0,4.67041E0,1.1024567E1,1.5251953E1,6.804284E1,2.2889603E1,1.482584E1,6.1640656E1,7.9864035E0,2.176384E0,7.177534E1,2.6144165E1,1.4313477E1,4.6023254E0,0E0,0E0,0E0,0E0,0E0,0E0,0E0,0E0,0E0,0E0,0E0,0E0,0E0,0E0,0E0,0E0,0E0,0E0,0E0,0E0,0E0,0E0,0E0,0E0,0E0,0E0,0E0,0E0,0E0,0E0,0E0,0E0],"parents":[2147483647,0,0,1,1,2,2,3,3,4,4,5,5,6,6,7,7,8,8,9,9,10,10,11,11,12,12,13,13,14,14,15,15,16,16,17,17,18,18,19,19,20,20,21,21,22,22,23,23,24,24,25,25,26,26,27,27,28,28,29,29,30,30],"right_children":[2,4,6,8,10,12,14,16,18,20,22,24,26,28,30,32,34,36,38,40,42,44,46,48,50,52,54,56,58,60,62,-1,-1,-1,-1,-1,-1,-1,-1,-1,-1,-1,-1,-1,-1,-1,-1,-1,-1,-1,-1,-1,-1,-1,-1,-1,-1,-1,-1,-1,-1,-1,-1],"split_conditions":[6.0649477E-6,5.6640533E-6,6.334416E-6,5.4176826E-6,5.8450046E-6,1.7230663E0,6.7351234E-6,4.8391985E-6,5.5426244E-6,5.7416237E-6,1.2834365E0,-1.9517126E0,3.315954E0,5.2465323E-2,7.233998E0,4.180147E-6,2.633405E-6,3.4717651E3,4.4441555E4,3.4982998E3,-1.092671E-6,-5.8517257E-6,1.6443733E-5,-1.8899591E-5,6.183446E-6,6.8326E-2,1.2258765E-6,1.5745736E-6,-3.7491298E0,-5.872237E0,6.0443E-2,1.7844215E-1,1.753971E-1,1.6812819E-1,9.526305E-2,1.5400195E-1,1.17111735E-1,1.3360235E-1,1.0874653E-1,1.07343294E-1,4.8621736E-2,1.107697E-1,6.613733E-2,7.5056285E-2,1.1365502E-2,8.462684E-2,2.4334338E-1,2.4580146E-1,7.104155E-2,-4.3231923E-2,-9.84948E-2,1.0646513E-1,1.6605398E-2,1.882054E-1,3.773959E-1,-9.4513066E-2,1.5550399E-1,3.381458E-1,-1.4725654E-1,5.79057E-2,-1.6271268E-1,3.3000574E-1,-2.9465593E-2],"split_indices":[6,6,6,6,6,5,6,6,6,6,5,5,5,3,5,6,9,1,0,1,8,4,4,4,6,2,7,8,5,5,2,0,0,0,0,0,0,0,0,0,0,0,0,0,0,0,0,0,0,0,0,0,0,0,0,0,0,0,0,0,0,0,0],"split_type":[0,0,0,0,0,0,0,0,0,0,0,0,0,0,0,0,0,0,0,0,0,0,0,0,0,0,0,0,0,0,0,0,0,0,0,0,0,0,0,0,0,0,0,0,0,0,0,0,0,0,0,0,0,0,0,0,0,0,0,0,0,0,0],"sum_hessian":[1.5771011E5,9.17436E4,6.596651E4,7.119461E4,2.0548996E4,7.935188E3,5.8031316E4,6.231892E4,8.8756875E3,8.940133E3,1.1608864E4,7.545089E3,3.9009952E2,7.791197E3,5.024012E4,4.682291E4,1.549601E4,4.331416E3,4.5442715E3,3.462583E3,5.47755E3,1.0497374E4,1.1114904E3,2.6739484E2,7.277694E3,3.5603616E2,3.406334E1,1.2019314E3,6.589265E3,5.0228465E4,1.1656599E1,3.4028383E4,1.2794527E4,1.5438935E4,5.707547E1,4.0504216E3,2.8099408E2,3.669242E3,8.750295E2,3.143198E3,3.1938495E2,8.110908E2,4.6664595E3,1.8270369E3,8.670337E3,1.02317096E3,8.8319405E1,5.4500263E1,2.1289456E2,3.7529084E3,3.5247854E3,1.7434558E2,1.816906E2,1.1751612E1,2.2311726E1,1.0886633E3,1.13268036E2,9.093109E0,6.5801724E3,2.6026888E1,5.0202438E4,6.065611E0,5.5909886E0],"tree_param":{"num_deleted":"0","num_feature":"10","num_nodes":"63","size_leaf_vector":"0"}},{"base_weights":[-3.7126105E-2,-4.9591115E-1,1.1736606E-1,-5.235822E-1,-3.1172302E-1,3.301314E-1,-4.5416996E-1,-5.3738135E-1,-4.736578E-1,-3.7799206E-1,-2.5630817E-1,7.1752094E-2,4.0281773E-1,-2.0900792E-1,-5.0701207E-1,-5.406512E-1,-5.1841044E-1,-4.451328E-1,-4.8851806E-1,-3.887313E-1,-1.0387976E-1,-2.6851213E-1,-6.0970422E-2,-4.927172E-2,1.4068156E-1,4.8649937E-1,1.6088519E-1,-2.654996E-1,-4.235738E-2,-5.0941056E-1,1.5964013E-1,-4.6464932E-1,-5.40984E-1,-5.275488E-1,-4.8595846E-1,-4.7770008E-1,-2.861263E-1,-5.2816725E-1,-4.7098142E-1,7.22813E-1,-3.903052E-1,1.319578E0,-1.6795424E-1,-2.4334525E-1,-3.5619453E-1,-1.4106505E-1,8.4776366E-1,-3.062475E-1,-3.3667345E-2,1.6464616E-1,-9.772281E-2,3.5317248E-1,5.1754E-1,2.1795598E-1,4.2981483E-2,-8.669473E-2,-3.0533105E-1,-8.817356E-2,6.1965966E-1,1.06088504E-1,-5.1191026E-1,7.9817545E-1,-1.9468415E-1],"categories":[],"categories_nodes":[],"categories_segments":[],"categories_sizes":[],"default_left":[1,1,1,1,1,1,1,1,1,1,1,1,1,1,1,1,1,1,1,1,1,1,1,1,1,1,1,1,1,1,1,0,0,0,0,0,0,0,0,0,0,0,0,0,0,0,0,0,0,0,0,0,0,0,0,0,0,0,0,0,0,0,0],"id":16,"left_children":[1,3,5,7,9,11,13,15,17,19,21,23,25,27,29,31,33,35,37,39,41,43,45,47,49,51,53,55,57,59,61,-1,-1,-1,-1,-1,-1,-1,-1,-1,-1,-1,-1,-1,-1,-1,-1,-1,-1,-1,-1,-1,-1,-1,-1,-1,-1,-1,-1,-1,-1,-1,-1],"loss_changes":[1.1199399E4,2.0270703E2,1.437412E4,2.3583984E1,1.9003937E1,1.6177012E3,4.1531543E2,1.4018555E0,2.9624023E0,6.926239E0,6.7437286E0,1.5778188E2,1.3609336E3,5.3535706E1,4.2262207E1,3.3154297E-1,9.326172E-1,1.3227539E1,3.173706E0,4.2655945E0,8.483872E0,5.8023224E0,1.2350502E1,2.7513329E1,6.8862335E1,2.0653516E2,1.1625415E2,3.0225525E1,4.376587E1,4.0496582E1,2.1724195E1,0E0,0E0,0E0,0E0,0E0,0E0,0E0,0E0,0E0,0E0,0E0,0E0,0E0,0E0,0E0,0E0,0E0,0E0,0E0,0E0,0E0,0E0,0E0,0E0,0E0,0E0,0E0,0E0,0E0,0E0,0E0,0E0],"parents":[2147483647,0,0,1,1,2,2,3,3,4,4,5,5,6,6,7,7,8,8,9,9,10,10,11,11,12,12,13,13,14,14,15,15,16,16,17,17,18,18,19,19,20,20,21,21,22,22,23,23,24,24,25,25,26,26,27,27,28,28,29,29,30,30],"right_children":[2,4,6,8,10,12,14,16,18,20,22,24,26,28,30,32,34,36,38,40,42,44,46,48,50,52,54,56,58,60,62,-1,-1,-1,-1,-1,-1,-1,-1,-1,-1,-1,-1,-1,-1,-1,-1,-1,-1,-1,-1,-1,-1,-1,-1,-1,-1,-1,-1,-1,-1,-1,-1],"split_conditions":[5.662446E-6,5.4285265E-6,8.064377E-6,4.9579257E-6,5.5426244E-6,6.058828E-6,8.437169E-6,4.6061386E-6,4.22455E-2,6.0046727E4,5.6543426E4,5.8450046E-6,7.5641588E-6,2.4255752E3,3.242859E0,-1.5370072E-6,4.7933508E4,3.575044E-2,1.354635E3,5.4286265E-6,6.059007E4,7.217412E-2,7.3032E-2,-8.643138E-6,1.2834365E0,6.262762E-6,7.872488E-6,1.51499E3,2.9317462E-6,-3.2517872E0,9.313419E-6,-1.393948E-1,-1.6229519E-1,-1.5826464E-1,-1.4578754E-1,-1.4331003E-1,-8.5837886E-2,-1.5845019E-1,-1.4129443E-1,2.1684392E-1,-1.1709156E-1,3.9587343E-1,-5.0386272E-2,-7.3003575E-2,-1.06858365E-1,-4.2319514E-2,2.5432912E-1,-9.187426E-2,-1.0100204E-2,4.939385E-2,-2.9316844E-2,1.0595175E-1,1.55262E-1,6.5386795E-2,1.2894445E-2,-2.6008422E-2,-9.1599315E-2,-2.645207E-2,1.858979E-1,3.1826552E-2,-1.5357308E-1,2.3945265E-1,-5.8405247E-2],"split_indices":[6,6,6,6,6,6,6,6,2,0,0,6,6,1,5,9,0,3,1,6,0,3,2,4,5,6,6,1,8,5,6,0,0,0,0,0,0,0,0,0,0,0,0,0,0,0,0,0,0,0,0,0,0,0,0,0,0,0,0,0,0,0,0],"split_type":[0,0,0,0,0,0,0,0,0,0,0,0,0,0,0,0,0,0,0,0,0,0,0,0,0,0,0,0,0,0,0,0,0,0,0,0,0,0,0,0,0,0,0,0,0,0,0,0,0,0,0,0,0,0,0,0,0,0,0,0,0,0,0],"sum_hessian":[1.5800617E5,3.9803168E4,1.1820301E5,3.4602844E4,5.2003213E3,8.6137195E4,3.2065814E4,2.7102072E4,7.5007725E3,2.3655754E3,2.8347456E3,1.8912084E4,6.722511E4,5.686789E3,2.6379025E4,2.3094004E4,4.0080679E3,2.5797556E3,4.921017E3,2.2759878E3,8.958752E1,2.6677034E3,1.6704233E2,6.862843E3,1.2049241E4,4.9947758E4,1.7277355E4,4.246653E3,1.4401361E3,2.6284693E4,9.433231E1,1.0676016E2,2.2987244E4,3.1155032E3,8.925647E2,2.139537E3,4.4021832E2,1.5001525E3,3.4208645E3,2.570193E0,2.2734177E3,3.0149062E0,8.657261E1,2.0757036E3,5.919997E2,1.5428833E2,1.2754002E1,3.9181036E2,6.471032E3,1.0948952E4,1.1002883E3,9.43492E3,4.0512836E4,1.1641493E4,5.635864E3,7.7423926E2,3.4724138E3,1.3477306E3,9.24055E1,1.0614878E2,2.6178545E4,3.3217564E1,6.111475E1],"tree_param":{"num_deleted":"0","num_feature":"10","num_nodes":"63","size_leaf_vector":"0"}},{"base_weights":[-4.150755E-2,-4.9379447E-1,4.712764E-1,-5.293951E-1,-1.6189554E-1,1.6364208E-1,5.61018E-1,-5.369319E-1,-4.3583554E-1,-2.6631755E-1,-7.456611E-2,6.11675E-2,2.3695143E-1,4.697312E-1,5.822973E-1,-5.408711E-1,-5.118272E-1,-2.7368343E-1,-4.537259E-1,7.109731E-5,-2.924479E-1,-1.4441015E-1,3.0607393E-3,1.3025169E-1,-2.8409488E-3,3.2655558E-1,1.8143955E-1,5.013575E-1,3.574696E-1,1.1657547E-1,5.832917E-1,-5.4115236E-1,-4.6888372E-1,-4.4984552E-1,-5.1977766E-1,-1.1471303E-2,-3.7584347E-1,-4.8590073E-1,-4.1561964E-1,5.742515E-1,-6.531409E-2,-2.9714116E-1,5.8060634E-1,1.0444294E0,-1.5346242E-1,1.220217E0,-1.0866212E-2,-2.4436092E-1,1.6464563E-1,-2.4160537E-1,4.0615667E-2,8.371571E-2,3.669498E-1,1.6284671E-1,5.341527E-1,2.9982397E-1,5.2110344E-1,-4.5914793E-1,3.8931525E-1,-5.326621E-1,4.6757233E-1,5.8367604E-1,-5.345552E-1],"categories":[],"categories_nodes":[],"categories_segments":[],"categories_sizes":[],"default_left":[1,1,1,1,1,1,1,1,1,1,1,1,1,1,1,1,1,1,1,1,1,1,1,1,1,1,1,1,1,1,1,0,0,0,0,0,0,0,0,0,0,0,0,0,0,0,0,0,0,0,0,0,0,0,0,0,0,0,0,0,0,0,0],"id":17,"left_children":[1,3,5,7,9,11,13,15,17,19,21,23,25,27,29,31,33,35,37,39,41,43,45,47,49,51,53,55,57,59,61,-1,-1,-1,-1,-1,-1,-1,-1,-1,-1,-1,-1,-1,-1,-1,-1,-1,-1,-1,-1,-1,-1,-1,-1,-1,-1,-1,-1,-1,-1,-1,-1],"loss_changes":[3.4136902E4,9.240039E2,1.9043135E3,4.9570312E1,6.908154E1,1.1702649E2,1.0346094E2,6.1875E0,1.5166504E1,2.401973E1,2.2381218E1,2.8737848E1,4.51156E1,3.5681152E1,1.9986328E1,8.90625E-1,4.143799E0,1.40933075E1,5.616455E0,1.1647509E1,1.3048676E1,2.3544605E1,3.317037E1,4.031037E1,3.502116E1,3.403647E1,3.6703598E1,3.1192993E1,5.8002533E1,2.1558813E1,1.8875E1,0E0,0E0,0E0,0E0,0E0,0E0,0E0,0E0,0E0,0E0,0E0,0E0,0E0,0E0,0E0,0E0,0E0,0E0,0E0,0E0,0E0,0E0,0E0,0E0,0E0,0E0,0E0,0E0,0E0,0E0,0E0,0E0],"parents":[2147483647,0,0,1,1,2,2,3,3,4,4,5,5,6,6,7,7,8,8,9,9,10,10,11,11,12,12,13,13,14,14,15,15,16,16,17,17,18,18,19,19,20,20,21,21,22,22,23,23,24,24,25,25,26,26,27,27,28,28,29,29,30,30],"right_children":[2,4,6,8,10,12,14,16,18,20,22,24,26,28,30,32,34,36,38,40,42,44,46,48,50,52,54,56,58,60,62,-1,-1,-1,-1,-1,-1,-1,-1,-1,-1,-1,-1,-1,-1,-1,-1,-1,-1,-1,-1,-1,-1,-1,-1,-1,-1,-1,-1,-1,-1,-1,-1],"split_conditions":[7.690661E-6,7.320471E-6,8.159839E-6,6.9906464E-6,7.5150992E-6,7.872488E-6,8.678813E-6,6.49324E-6,4.1529465E-2,4.6516E-2,1.9544651E3,6.762959E-2,6.0387217E-2,2.53024E3,-3.8071494E0,2.7231774E-6,4.1026E-2,-6.951219E-7,3.1752816E4,6.337005E3,6.2783703E4,1.24655E2,4.68995E-2,3.78005E2,6.8661496E-2,3.9296E-2,8.2214504E-2,5.0296E-2,-3.211584E-6,9.974775E-6,7.1121235E0,-1.623457E-1,-1.4066513E-1,-1.3495366E-1,-1.559333E-1,-3.441391E-3,-1.1275304E-1,-1.4577022E-1,-1.246859E-1,1.7227545E-1,-1.9594228E-2,-8.914235E-2,1.7418191E-1,3.1332883E-1,-4.603873E-2,3.660651E-1,-3.2598637E-3,-7.330828E-2,4.939369E-2,-7.248162E-2,1.2184701E-2,2.5114713E-2,1.1008494E-1,4.8854016E-2,1.602458E-1,8.9947194E-2,1.5633103E-1,-1.3774438E-1,1.1679458E-1,-1.5979864E-1,1.4027171E-1,1.7510282E-1,-1.6036656E-1],"split_indices":[6,6,6,6,6,6,6,6,3,2,1,3,3,1,5,9,2,9,0,0,0,1,2,1,2,2,2,2,8,6,5,0,0,0,0,0,0,0,0,0,0,0,0,0,0,0,0,0,0,0,0,0,0,0,0,0,0,0,0,0,0,0,0],"split_type":[0,0,0,0,0,0,0,0,0,0,0,0,0,0,0,0,0,0,0,0,0,0,0,0,0,0,0,0,0,0,0,0,0,0,0,0,0,0,0,0,0,0,0,0,0,0,0,0,0,0,0,0,0,0,0,0,0,0,0,0,0,0,0],"sum_hessian":[1.4718711E5,7.82069E4,6.89802E4,7.063026E4,7.5766445E3,1.5578819E4,5.3401383E4,6.5360375E4,5.2698843E3,3.4497007E3,4.126944E3,6.497793E3,9.081026E3,1.0099265E4,4.3302117E4,5.647781E4,8.882564E3,5.25274E2,4.74461E3,3.082463E2,3.1414543E3,2.1719194E3,1.9550247E3,3.124496E3,3.3732969E3,3.4719377E3,5.6090884E3,7.876763E3,2.2225017E3,9.251291E1,4.3209605E4,5.6251504E4,2.2630376E2,1.01638837E3,7.8661763E3,1.475844E2,3.7768958E2,2.5661458E3,2.178464E3,3.0717535E1,2.7752878E2,3.1253132E3,1.6141062E1,1.5548523E1,2.1563708E3,2.113687E1,1.9338878E3,2.6222986E2,2.862266E3,5.1872076E2,2.8545762E3,4.9559808E2,2.9763396E3,5.3296064E3,2.7948175E2,7.0432983E2,7.1724336E3,8.291437E1,2.1395874E3,3.228251E1,6.0230404E1,4.319523E4,1.4372939E1],"tree_param":{"num_deleted":"0","num_feature":"10","num_nodes":"63","size_leaf_vector":"0"}},{"base_weights":[6.69407E-2,4.2258677E-1,-4.7724703E-1,5.3553665E-1,1.3765973E-1,-2.1007116E-1,-5.1792014E-1,5.5341196E-1,4.1932255E-1,1.9740604E-1,3.4852367E-2,5.2691646E-2,-2.6515365E-1,-4.1064385E-1,-5.2696806E-1,5.6335694E-1,5.226932E-1,4.6228853E-1,3.7735155E-1,2.761633E-1,1.5909772E-1,1.1370892E-1,-4.532119E-2,2.9900502E-2,2.1193445E0,-2.7905703E-1,3.7738532E-1,-4.4456205E-1,-1.1915881E-2,-4.8107812E-1,-5.344848E-1,5.6681615E-1,5.534736E-1,5.236512E-1,2.669892E-1,4.940753E-1,4.291137E-1,4.3548456E-1,3.524989E-1,2.935767E-1,9.156863E-2,1.328137E-1,2.9463443E-1,7.574508E-2,3.8906437E-1,-1.2796205E-1,3.3516236E-2,1.0586379E-2,1.6427253E0,2.6042316E0,1.461347E-1,1.7934951E-1,-2.9712772E-1,2.103019E0,-9.331212E-2,-2.4329527E-1,-4.981383E-1,6.4762795E-1,-3.510053E-1,-4.8437285E-1,1.3229601E0,8.196726E-3,-5.3475934E-1],"categories":[],"categories_nodes":[],"categories_segments":[],"categories_sizes":[],"default_left":[1,1,1,1,1,1,1,1,1,1,1,1,1,1,1,1,1,1,1,1,1,1,1,1,1,1,1,1,1,1,1,0,0,0,0,0,0,0,0,0,0,0,0,0,0,0,0,0,0,0,0,0,0,0,0,0,0,0,0,0,0,0,0],"id":18,"left_children":[1,3,5,7,9,11,13,15,17,19,21,23,25,27,29,31,33,35,37,39,41,43,45,47,49,51,53,55,57,59,61,-1,-1,-1,-1,-1,-1,-1,-1,-1,-1,-1,-1,-1,-1,-1,-1,-1,-1,-1,-1,-1,-1,-1,-1,-1,-1,-1,-1,-1,-1,-1,-1],"loss_changes":[2.5034754E4,2.517497E3,5.5545996E2,1.1614258E2,1.3640778E2,9.780261E1,4.284961E1,1.4537109E1,1.3300293E1,4.233307E1,5.1619877E1,5.512552E1,5.0004272E1,4.6729736E1,1.3856445E1,9.394531E-1,2.7717285E0,3.67688E0,5.3152466E0,1.4743225E1,3.3632553E1,4.299844E1,2.638382E1,3.611502E1,1.1834068E1,4.534784E1,9.663322E1,3.4220093E1,6.104564E1,3.4928345E1,5.241211E0,0E0,0E0,0E0,0E0,0E0,0E0,0E0,0E0,0E0,0E0,0E0,0E0,0E0,0E0,0E0,0E0,0E0,0E0,0E0,0E0,0E0,0E0,0E0,0E0,0E0,0E0,0E0,0E0,0E0,0E0,0E0,0E0],"parents":[2147483647,0,0,1,1,2,2,3,3,4,4,5,5,6,6,7,7,8,8,9,9,10,10,11,11,12,12,13,13,14,14,15,15,16,16,17,17,18,18,19,19,20,20,21,21,22,22,23,23,24,24,25,25,26,26,27,27,28,28,29,29,30,30],"right_children":[2,4,6,8,10,12,14,16,18,20,22,24,26,28,30,32,34,36,38,40,42,44,46,48,50,52,54,56,58,60,62,-1,-1,-1,-1,-1,-1,-1,-1,-1,-1,-1,-1,-1,-1,-1,-1,-1,-1,-1,-1,-1,-1,-1,-1,-1,-1,-1,-1,-1,-1,-1,-1],"split_conditions":[6.1128194E-6,5.648535E-6,6.4120118E-6,5.3995886E-6,5.934096E-6,5.354611E-2,4.14825E-2,4.8391985E-6,5.5313003E-6,5.7615202E-6,6.8366E-2,3.1358236E-6,2.900023E-6,2.0458122E-6,6.8598515E-6,4.2103284E-6,2.633405E-6,2.9475906E4,1.28788E3,3.5212852E3,5.8621517E-6,1.3894412E-6,2.75791E3,5.8713992E4,1.681175E3,-1.935309E0,2.3905086E-6,6.7679166E-6,7.4499403E-6,3.8765776E0,-5.872237E0,1.7004485E-1,1.6604209E-1,1.5709536E-1,8.009677E-2,1.482226E-1,1.2873411E-1,1.3064538E-1,1.05749674E-1,8.807301E-2,2.7470589E-2,3.9844114E-2,8.8390335E-2,2.2723526E-2,1.1671931E-1,-3.8388617E-2,1.0054871E-2,3.1759138E-3,4.928176E-1,7.812695E-1,4.3840412E-2,5.3804856E-2,-8.913832E-2,6.3090575E-1,-2.7993638E-2,-7.2988585E-2,-1.494415E-1,1.9428839E-1,-1.0530159E-1,-1.4531186E-1,3.9688805E-1,2.459018E-3,-1.6042781E-1],"split_indices":[6,6,6,6,6,3,2,6,6,6,2,8,8,8,6,6,9,0,1,1,4,8,1,0,1,5,9,6,6,5,5,0,0,0,0,0,0,0,0,0,0,0,0,0,0,0,0,0,0,0,0,0,0,0,0,0,0,0,0,0,0,0,0],"split_type":[0,0,0,0,0,0,0,0,0,0,0,0,0,0,0,0,0,0,0,0,0,0,0,0,0,0,0,0,0,0,0,0,0,0,0,0,0,0,0,0,0,0,0,0,0,0,0,0,0,0,0,0,0,0,0,0,0,0,0,0,0,0,0],"sum_hessian":[1.2935097E5,7.822703E4,5.1123934E4,5.60192E4,2.2207836E4,6.7553315E3,4.43686E4,4.8548094E4,7.4711045E3,1.4044805E4,8.163031E3,1.1707042E3,5.5846274E3,3.454672E3,4.091393E4,3.666176E4,1.1886332E4,3.686844E3,3.7842603E3,4.593962E3,9.450843E3,4.1151055E3,4.0479253E3,1.1589379E3,1.1766354E1,5.4668994E3,1.1772799E2,3.18373E3,2.7094214E2,5.7675923E3,3.5146336E4,2.711508E4,9.546684E3,1.1840924E4,4.540859E1,1.8757172E3,1.8111268E3,1.1283667E3,2.6558936E3,4.197417E3,3.9654495E2,7.917432E3,1.533411E3,3.6176128E3,4.9749283E2,1.9759863E3,2.071939E3,1.1462181E3,1.2719786E1,9.188597E0,2.5777574E0,2.0699709E2,5.2599023E3,2.4487175E1,9.324082E1,6.7048804E2,2.513242E3,9.169039E1,1.7925174E2,5.757808E3,9.784049E0,1.7759052E1,3.512858E4],"tree_param":{"num_deleted":"0","num_feature":"10","num_nodes":"63","size_leaf_vector":"0"}},{"base_weights":[-2.8313177E-2,-4.772483E-1,1.0335658E-1,-5.074194E-1,-2.8552243E-1,2.6884332E-1,-4.4164607E-1,-5.2358526E-1,-4.4617203E-1,-3.4640396E-1,-2.1894954E-1,6.6041745E-2,3.391648E-1,-2.5131083E-1,-4.9834025E-1,-5.29328E-1,-5.0490874E-1,-4.121393E-1,-4.6426007E-1,-3.9823404E-1,-2.9331782E-1,-3.1594092E-1,-1.7577595E-1,2.4131765E-3,1.6191114E-1,4.4397447E-1,1.2717687E-1,-2.7125686E-1,2.583558E-1,1.4603916E-1,-5.0066143E-1,-5.1232654E-1,-4.7156483E-1,-4.5403016E-1,-2.047882E-1,-5.1510394E-1,-4.4582418E-1,-4.053446E-1,4.2424154E-1,1.5873208E0,-2.9680702E-1,-3.2721505E-1,8.424449E-1,1.6950987E-1,-2.0040911E-1,3.0872297E-2,-1.4943902E-1,-2.2558406E-1,1.7574887E-1,3.172379E-1,4.7951275E-1,2.1816804E-1,6.8641104E-2,4.441852E-1,-2.8477377E-1,1.0117963E-1,5.7426226E-1,8.3733654E-1,-2.946936E-1,-5.0300115E-1,1.15609325E-1],"categories":[],"categories_nodes":[],"categories_segments":[],"categories_sizes":[],"default_left":[1,1,1,1,1,1,1,1,1,1,1,1,1,1,1,0,1,1,1,1,1,1,1,1,1,1,1,1,1,1,1,0,0,0,0,0,0,0,0,0,0,0,0,0,0,0,0,0,0,0,0,0,0,0,0,0,0,0,0,0,0],"id":19,"left_children":[1,3,5,7,9,11,13,15,17,19,21,23,25,27,29,-1,31,33,35,37,39,41,43,45,47,49,51,53,55,57,59,-1,-1,-1,-1,-1,-1,-1,-1,-1,-1,-1,-1,-1,-1,-1,-1,-1,-1,-1,-1,-1,-1,-1,-1,-1,-1,-1,-1,-1,-1],"loss_changes":[7.899839E3,1.7517334E2,9.32008E3,2.5692871E1,1.6635773E1,1.1304395E3,2.5960596E2,1.9541016E0,3.178833E0,5.804138E0,8.203232E0,1.2450405E2,1.3076807E3,5.6246765E1,2.7810059E1,0E0,9.683838E-1,1.6488373E1,3.1138916E0,6.523514E0,7.4719696E0,8.1930275E0,1.1661118E1,5.30266E1,4.369928E1,1.7723877E2,1.03708984E2,5.155835E1,1.0301046E1,2.0761925E1,2.670166E1,0E0,0E0,0E0,0E0,0E0,0E0,0E0,0E0,0E0,0E0,0E0,0E0,0E0,0E0,0E0,0E0,0E0,0E0,0E0,0E0,0E0,0E0,0E0,0E0,0E0,0E0,0E0,0E0,0E0,0E0],"parents":[2147483647,0,0,1,1,2,2,3,3,4,4,5,5,6,6,7,7,8,8,9,9,10,10,11,11,12,12,13,13,14,14,16,16,17,17,18,18,19,19,20,20,21,21,22,22,23,23,24,24,25,25,26,26,27,27,28,28,29,29,30,30],"right_children":[2,4,6,8,10,12,14,16,18,20,22,24,26,28,30,-1,32,34,36,38,40,42,44,46,48,50,52,54,56,58,60,-1,-1,-1,-1,-1,-1,-1,-1,-1,-1,-1,-1,-1,-1,-1,-1,-1,-1,-1,-1,-1,-1,-1,-1,-1,-1,-1,-1,-1,-1],"split_conditions":[5.627187E-6,5.3995886E-6,8.144706E-6,4.9579257E-6,5.5313003E-6,6.0816105E-6,8.678813E-6,4.3809787E-6,4.14915E-2,2.9475906E4,1.3023E3,5.934096E-6,7.5150992E-6,1.9172709E0,-3.8071494E0,-1.587984E-1,4.8832312E4,3.575044E-2,1.327295E3,7.8905E-2,2.9487645E4,3.9850594E4,4.3623E-2,5.8621517E-6,-1.07903525E-5,6.3012444E-6,7.753008E-6,-2.2747798E0,2.3228E3,9.974775E-6,3.2878702E0,-1.5369797E-1,-1.4146945E-1,-1.3620906E-1,-6.143646E-2,-1.5453118E-1,-1.3374726E-1,-1.21603385E-1,1.2727247E-1,4.7619626E-1,-8.904211E-2,-9.816452E-2,2.5273347E-1,5.0852966E-2,-6.0122736E-2,9.261689E-3,-4.4831708E-2,-6.767522E-2,5.2724663E-2,9.517138E-2,1.4385383E-1,6.5450415E-2,2.0592332E-2,1.3325557E-1,-8.5432135E-2,3.035389E-2,1.7227869E-1,2.5120097E-1,-8.840808E-2,-1.5090035E-1,3.46828E-2],"split_indices":[6,6,6,6,6,6,6,6,2,0,1,6,6,5,5,0,0,3,1,2,0,0,2,4,4,6,6,5,1,6,5,0,0,0,0,0,0,0,0,0,0,0,0,0,0,0,0,0,0,0,0,0,0,0,0,0,0,0,0,0,0],"split_type":[0,0,0,0,0,0,0,0,0,0,0,0,0,0,0,0,0,0,0,0,0,0,0,0,0,0,0,0,0,0,0,0,0,0,0,0,0,0,0,0,0,0,0,0,0,0,0,0,0,0,0,0,0,0,0,0,0,0,0,0,0],"sum_hessian":[1.336419E5,3.0306758E4,1.0333515E5,2.6184557E4,4.1222E3,7.926678E4,2.4068371E4,2.0710594E4,5.473963E3,2.150941E3,1.971259E3,2.0409455E4,5.8857324E4,5.5250283E3,1.8543342E4,1.5819104E4,4.8914897E3,1.9079445E3,3.5660186E3,1.085056E3,1.065885E3,6.052408E2,1.3660182E3,1.2268122E4,8.1413335E3,3.938417E4,1.9473152E4,5.3173975E3,2.0763107E2,6.633406E1,1.8477008E4,3.9895852E3,9.019048E2,1.5862805E3,3.2166388E2,9.417772E2,2.6242415E3,1.0762585E3,8.797434E0,1.1332893E0,1.0647517E3,6.001176E2,5.123186E0,9.0572464E1,1.2754458E3,1.0332476E4,1.9356464E3,2.801809E2,7.861153E3,8.627335E3,3.0756836E4,7.622147E3,1.1851006E4,9.80083E1,5.219389E3,1.3952971E2,6.8101364E1,2.547546E1,4.08586E1,1.8407307E4,6.970167E1],"tree_param":{"num_deleted":"0","num_feature":"10","num_nodes":"61","size_leaf_vector":"0"}},{"base_weights":[-4.0533222E-2,-4.7905645E-1,4.1093698E-1,-5.1296216E-1,-1.3783593E-1,1.3407785E-1,5.279597E-1,-5.223189E-1,-3.9816323E-1,-2.187353E-1,-6.416199E-2,8.33966E-2,2.5322515E-1,4.3623084E-1,5.5344015E-1,-5.2737147E-1,-4.9009115E-1,-2.0522729E-1,-4.2062968E-1,4.9480945E-2,-2.4807072E-1,-3.1522143E-1,-4.354756E-2,1.5438426E-1,1.0792586E-2,-2.8409624E-2,2.7620202E-1,-3.207911E-1,4.4177598E-1,5.541956E-1,-1.3038561E-1,-5.2772975E-1,-4.408757E-1,-4.3065086E-1,-5.0310403E-1,6.7909755E-2,-3.2100484E-1,-4.581994E-1,-3.7668422E-1,-1.0113408E-1,3.6806282E-1,-2.540138E-1,5.924898E-1,-3.3171555E-1,3.3617627E-2,1.0515865E-2,-1.7048055E-1,-6.857879E-2,1.8315226E-1,-2.6216134E-1,4.5254488E-2,-4.4226745E-1,1.7811755E-2,2.9837143E-1,3.481417E-3,-5.846665E-1,-1.35076465E-2,4.486276E-1,-1.6242966E-1,9.452094E-2,5.5509883E-1,-9.4120204E-1,2.6676416E-1],"categories":[],"categories_nodes":[],"categories_segments":[],"categories_sizes":[],"default_left":[1,1,1,1,1,1,1,1,1,1,1,1,1,1,1,1,1,1,1,1,1,1,1,1,1,1,1,1,1,1,1,0,0,0,0,0,0,0,0,0,0,0,0,0,0,0,0,0,0,0,0,0,0,0,0,0,0,0,0,0,0,0,0],"id":20,"left_children":[1,3,5,7,9,11,13,15,17,19,21,23,25,27,29,31,33,35,37,39,41,43,45,47,49,51,53,55,57,59,61,-1,-1,-1,-1,-1,-1,-1,-1,-1,-1,-1,-1,-1,-1,-1,-1,-1,-1,-1,-1,-1,-1,-1,-1,-1,-1,-1,-1,-1,-1,-1,-1],"loss_changes":[2.3811904E4,7.057959E2,1.919959E3,5.9405273E1,3.2861794E1,1.06306854E2,9.7118164E1,8.095703E0,1.8060974E1,2.0694923E1,1.4934481E1,6.367575E1,3.4008636E1,3.8174316E1,1.6911133E1,1.1416016E0,5.17334E0,1.3892231E1,6.01709E0,1.2512288E1,1.1988113E1,1.2712383E0,1.8326487E1,4.0081726E1,5.747648E1,7.6066356E0,2.9370789E1,5.381146E0,3.7309326E1,1.3464844E1,1.209471E1,0E0,0E0,0E0,0E0,0E0,0E0,0E0,0E0,0E0,0E0,0E0,0E0,0E0,0E0,0E0,0E0,0E0,0E0,0E0,0E0,0E0,0E0,0E0,0E0,0E0,0E0,0E0,0E0,0E0,0E0,0E0,0E0],"parents":[2147483647,0,0,1,1,2,2,3,3,4,4,5,5,6,6,7,7,8,8,9,9,10,10,11,11,12,12,13,13,14,14,15,15,16,16,17,17,18,18,19,19,20,20,21,21,22,22,23,23,24,24,25,25,26,26,27,27,28,28,29,29,30,30],"right_children":[2,4,6,8,10,12,14,16,18,20,22,24,26,28,30,32,34,36,38,40,42,44,46,48,50,52,54,56,58,60,62,-1,-1,-1,-1,-1,-1,-1,-1,-1,-1,-1,-1,-1,-1,-1,-1,-1,-1,-1,-1,-1,-1,-1,-1,-1,-1,-1,-1,-1,-1,-1,-1],"split_conditions":[7.639958E-6,7.314481E-6,8.207002E-6,6.988726E-6,7.4901454E-6,7.99997E-6,8.803547E-6,6.49324E-6,4.1529465E-2,4.6516E-2,-1.3567171E0,6.7889005E-2,-1.4650115E0,-2.7663841E0,5.037162E0,2.7231774E-6,5.8826104E-2,-6.951219E-7,3.1752816E4,3.165654E4,6.2783703E4,8.089501E-2,4.268434E-6,2.16858E4,6.863329E-2,-2.7211704E0,1.5390624E0,-3.4586968E0,2.5724316E0,-4.2067766E0,1.0680258E-5,-1.5831894E-1,-1.3226272E-1,-1.2919526E-1,-1.5093121E-1,2.0372927E-2,-9.630146E-2,-1.3745983E-1,-1.1300527E-1,-3.0340225E-2,1.1041885E-1,-7.620414E-2,1.7774694E-1,-9.951467E-2,1.0085288E-2,3.1547595E-3,-5.1144168E-2,-2.0573637E-2,5.494568E-2,-7.86484E-2,1.3576346E-2,-1.3268024E-1,5.3435266E-3,8.951143E-2,1.0444252E-3,-1.7539996E-1,-4.052294E-3,1.3458829E-1,-4.8728902E-2,2.8356284E-2,1.6652966E-1,-2.823606E-1,8.002925E-2],"split_indices":[6,6,6,6,6,6,6,6,3,2,5,2,5,5,5,9,3,9,0,0,0,2,4,0,3,5,5,5,5,5,6,0,0,0,0,0,0,0,0,0,0,0,0,0,0,0,0,0,0,0,0,0,0,0,0,0,0,0,0,0,0,0,0],"split_type":[0,0,0,0,0,0,0,0,0,0,0,0,0,0,0,0,0,0,0,0,0,0,0,0,0,0,0,0,0,0,0,0,0,0,0,0,0,0,0,0,0,0,0,0,0,0,0,0,0,0,0,0,0,0,0,0,0,0,0,0,0,0,0],"sum_hessian":[1.2027219E5,6.1010883E4,5.926131E4,5.5495965E4,5.514918E3,1.7607236E4,4.165407E4,5.1310344E4,4.185619E3,2.6276252E3,2.8872927E3,1.2353974E4,5.2532627E3,9.059223E3,3.259485E4,4.434302E4,6.9673257E3,4.3761658E2,3.7480024E3,2.589881E2,2.3686372E3,2.1800139E2,2.6692913E3,6.2459487E3,6.108025E3,3.9623593E2,4.857027E3,6.546203E1,8.993761E3,3.255907E4,3.5779686E1,4.415502E4,1.8799995E2,1.2574828E3,5.709843E3,1.3039893E2,3.0721765E2,2.0154946E3,1.7325077E3,1.763148E2,8.267329E1,2.3527004E3,1.5936731E1,2.082059E2,9.795485E0,1.8726201E3,7.966711E2,7.1363306E2,5.532316E3,6.839805E2,5.4240444E3,3.8946606E1,3.572893E2,4.491796E3,3.652313E2,3.4732918E1,3.0729109E1,8.893171E3,1.0058988E2,6.405578E1,3.2495014E4,1.13131E1,2.4466587E1],"tree_param":{"num_deleted":"0","num_feature":"10","num_nodes":"63","size_leaf_vector":"0"}},{"base_weights":[5.8143765E-2,3.7185678E-1,-4.6356592E-1,5.1400566E-1,1.21349245E-1,-1.926111E-1,-5.062046E-1,5.3189164E-1,4.021466E-1,2.3189893E-1,7.394206E-2,6.991208E-2,-2.5248736E-1,-3.796705E-1,-5.171534E-1,5.4285324E-1,4.9433288E-1,4.306333E-1,3.4280547E-1,3.6346543E-1,2.1353768E-1,1.0232788E-1,-6.990294E-2,2.762332E-2,8.4615916E-1,-2.7126953E-1,3.5451445E-1,-4.1902837E-1,5.9979465E-2,-4.630282E-1,-5.2548313E-1,5.47389E-1,5.299804E-1,4.9551496E-1,1.824302E-1,4.6211267E-1,3.9557195E-1,4.359667E-1,3.0164823E-1,4.1943663E-1,2.8348053E-1,1.9477576E-1,3.618766E-1,2.983139E-1,7.785626E-2,9.047826E-2,-1.2912594E-1,9.015143E-1,-8.588674E-3,2.1845345E0,6.008482E-1,1.6965105E-1,-2.9286733E-1,2.4536169E-1,9.6211505E-1,-2.1862471E-1,-4.8807675E-1,6.421441E-1,-3.0505735E-1,1.6183401E0,-4.65955E-1,2.239196E-2,-5.2583057E-1],"categories":[],"categories_nodes":[],"categories_segments":[],"categories_sizes":[],"default_left":[1,1,1,1,1,1,1,1,1,1,1,1,1,1,1,1,1,1,1,1,1,1,1,1,1,1,1,1,1,1,1,0,0,0,0,0,0,0,0,0,0,0,0,0,0,0,0,0,0,0,0,0,0,0,0,0,0,0,0,0,0,0,0],"id":21,"left_children":[1,3,5,7,9,11,13,15,17,19,21,23,25,27,29,31,33,35,37,39,41,43,45,47,49,51,53,55,57,59,61,-1,-1,-1,-1,-1,-1,-1,-1,-1,-1,-1,-1,-1,-1,-1,-1,-1,-1,-1,-1,-1,-1,-1,-1,-1,-1,-1,-1,-1,-1,-1,-1],"loss_changes":[1.7431957E4,2.3684229E3,4.6197754E2,8.468457E1,1.261839E2,8.552428E1,4.767871E1,1.4792969E1,9.747742E0,1.7380066E1,6.882709E1,3.3166016E1,5.0598022E1,4.7710266E1,1.4094727E1,1.3623047E0,2.9606934E0,4.1782227E0,7.1672516E0,3.8368912E0,1.7585815E1,6.7492065E1,2.640204E1,3.03826E1,1.5826046E1,4.0972473E1,8.610189E0,3.489502E1,4.8500717E1,2.6643616E1,5.2558594E0,0E0,0E0,0E0,0E0,0E0,0E0,0E0,0E0,0E0,0E0,0E0,0E0,0E0,0E0,0E0,0E0,0E0,0E0,0E0,0E0,0E0,0E0,0E0,0E0,0E0,0E0,0E0,0E0,0E0,0E0,0E0,0E0],"parents":[2147483647,0,0,1,1,2,2,3,3,4,4,5,5,6,6,7,7,8,8,9,9,10,10,11,11,12,12,13,13,14,14,15,15,16,16,17,17,18,18,19,19,20,20,21,21,22,22,23,23,24,24,25,25,26,26,27,27,28,28,29,29,30,30],"right_children":[2,4,6,8,10,12,14,16,18,20,22,24,26,28,30,32,34,36,38,40,42,44,46,48,50,52,54,56,58,60,62,-1,-1,-1,-1,-1,-1,-1,-1,-1,-1,-1,-1,-1,-1,-1,-1,-1,-1,-1,-1,-1,-1,-1,-1,-1,-1,-1,-1,-1,-1,-1,-1],"split_conditions":[6.143714E-6,5.5940345E-6,6.4398673E-6,5.342481E-6,5.7911902E-6,5.354611E-2,4.14825E-2,4.8391985E-6,5.523915E-6,-1.1421933E0,7.410124E-2,2.2423815E-6,1.3022091E-5,2.1052324E-6,6.8598774E-6,4.2103284E-6,2.6725497E-6,2.9475906E4,1.305635E3,5.7225134E-6,7.2933663E-6,-1.3288611E-6,-6.522399E-1,-2.1680408E0,2.5255E-2,-1.8502746E0,3.2762346E0,6.88624E-6,7.4499403E-6,-2.6165693E-5,-5.872237E0,1.642167E-1,1.5899414E-1,1.4865449E-1,5.472906E-2,1.386338E-1,1.1867159E-1,1.3079001E-1,9.049447E-2,1.25831E-1,8.504416E-2,5.843273E-2,1.0856298E-1,8.949417E-2,2.3356877E-2,2.7143478E-2,-3.873778E-2,2.704543E-1,-2.5766022E-3,6.553604E-1,1.8025446E-1,5.0895315E-2,-8.7860204E-2,7.360851E-2,2.8863454E-1,-6.558742E-2,-1.4642303E-1,1.9264324E-1,-9.151721E-2,4.8550206E-1,-1.397865E-1,6.7175883E-3,-1.5774918E-1],"split_indices":[6,6,6,6,6,3,2,6,6,5,3,8,4,8,6,6,9,0,1,6,4,8,5,5,2,5,5,6,6,4,5,0,0,0,0,0,0,0,0,0,0,0,0,0,0,0,0,0,0,0,0,0,0,0,0,0,0,0,0,0,0,0,0],"split_type":[0,0,0,0,0,0,0,0,0,0,0,0,0,0,0,0,0,0,0,0,0,0,0,0,0,0,0,0,0,0,0,0,0,0,0,0,0,0,0,0,0,0,0,0,0,0,0,0,0,0,0,0,0,0,0,0,0,0,0,0,0,0,0],"sum_hessian":[1.0650656E5,6.651202E4,3.999454E4,4.243277E4,2.4079256E4,5.4387295E3,3.455581E4,3.6579973E4,5.852795E3,7.2256753E3,1.685358E4,1.01005396E3,4.428676E3,2.7547793E3,3.180103E4,2.8305531E4,8.27444E3,3.9502312E3,1.9025638E3,8.826081E2,6.3430674E3,1.4076137E4,2.7774424E3,9.588527E2,5.120126E1,4.296291E3,1.3238489E2,2.5284749E3,2.2630452E2,4.2489126E3,2.7552117E4,2.0899906E4,7.405626E3,8.242613E3,3.1827272E1,2.075021E3,1.8752103E3,5.8003546E2,1.3225283E3,5.1675415E2,3.6585388E2,5.6329277E3,7.101398E2,1.5612618E3,1.2514875E4,7.488802E2,2.0285623E3,3.720092E1,9.216518E2,6.7065086E0,4.449475E1,2.0030005E2,4.0959907E3,1.1341433E2,1.8970558E1,6.490015E2,1.8794734E3,8.692172E1,1.393828E2,5.1913824E0,4.243721E3,1.7420263E1,2.7534697E4],"tree_param":{"num_deleted":"0","num_feature":"10","num_nodes":"63","size_leaf_vector":"0"}},{"base_weights":[-1.9808948E-2,-4.7300768E-1,8.8236004E-2,-5.0234056E-1,-3.37666E-1,2.1341397E-1,-4.2791495E-1,-5.1545054E-1,-4.452716E-1,-3.8084906E-1,-2.758376E-1,4.9859654E-2,2.8342375E-1,-2.4850002E-1,-4.8686948E-1,-5.21203E-1,-4.984251E-1,-4.2973268E-1,-4.9369058E-1,-4.2026424E-1,-3.3477756E-1,-2.9234892E-1,9.667002E-3,-1.0896926E-1,8.731775E-2,4.027469E-1,1.0021227E-1,-2.619755E-1,6.6120255E-1,-3.250869E-1,-4.9707583E-1,-5.003295E-1,-2.963277E-1,1.238922E-1,-4.3273696E-1,-5.0043213E-1,-3.9779165E-1,2.8424773E-1,-4.23814E-1,4.3394476E-1,-3.4546018E-1,-2.9735446E-1,4.782727E-1,3.1687338E0,-8.297828E-2,-2.7590406E-1,-8.494232E-2,-1.7861432E-1,1.0255176E-1,2.1287932E-1,4.310756E-1,4.492805E-3,1.4400405E-1,1.0995078E-1,-2.9337382E-1,3.2840486E0,3.8409993E-1,-1.659948E-1,-4.9720487E-1,-4.9861184E-1,3.4801722E-1],"categories":[],"categories_nodes":[],"categories_segments":[],"categories_sizes":[],"default_left":[1,1,1,1,1,1,1,1,1,1,1,1,1,1,1,0,1,1,1,1,1,1,1,1,1,1,1,1,1,1,1,0,0,0,0,0,0,0,0,0,0,0,0,0,0,0,0,0,0,0,0,0,0,0,0,0,0,0,0,0,0],"id":22,"left_children":[1,3,5,7,9,11,13,15,17,19,21,23,25,27,29,-1,31,33,35,37,39,41,43,45,47,49,51,53,55,57,59,-1,-1,-1,-1,-1,-1,-1,-1,-1,-1,-1,-1,-1,-1,-1,-1,-1,-1,-1,-1,-1,-1,-1,-1,-1,-1,-1,-1,-1,-1],"loss_changes":[5.595287E3,8.7160645E1,5.9618135E3,1.3295898E1,1.036499E1,8.503164E2,1.9038037E2,1.1791992E0,2.3341675E0,4.0472717E0,7.621765E0,1.3244933E2,1.1367969E3,5.4803223E1,2.2220215E1,0E0,1.2888184E0,4.3279114E0,3.2817078E-1,3.2190094E0,8.922333E0,6.0358734E0,2.6406586E1,1.70173E1,7.299425E1,1.6929199E2,8.597818E1,5.1322662E1,4.6222916E1,2.202288E1,1.6722656E1,0E0,0E0,0E0,0E0,0E0,0E0,0E0,0E0,0E0,0E0,0E0,0E0,0E0,0E0,0E0,0E0,0E0,0E0,0E0,0E0,0E0,0E0,0E0,0E0,0E0,0E0,0E0,0E0,0E0,0E0],"parents":[2147483647,0,0,1,1,2,2,3,3,4,4,5,5,6,6,7,7,8,8,9,9,10,10,11,11,12,12,13,13,14,14,16,16,17,17,18,18,19,19,20,20,21,21,22,22,23,23,24,24,25,25,26,26,27,27,28,28,29,29,30,30],"right_children":[2,4,6,8,10,12,14,16,18,20,22,24,26,28,30,-1,32,34,36,38,40,42,44,46,48,50,52,54,56,58,60,-1,-1,-1,-1,-1,-1,-1,-1,-1,-1,-1,-1,-1,-1,-1,-1,-1,-1,-1,-1,-1,-1,-1,-1,-1,-1,-1,-1,-1,-1],"split_conditions":[5.5426244E-6,5.2160963E-6,8.219276E-6,4.8108877E-6,5.4285265E-6,6.097943E-6,8.803547E-6,4.2103284E-6,6.744845E-2,2.945976E4,3.80467E3,5.7352736E-6,7.4901454E-6,5.8863375E4,4.0860225E-2,-1.563609E-1,6.3721703E4,-2.0001316E-6,7.5533E-2,1.91735E-2,2.995665E4,7.8888506E-2,4.971863E4,-1.130922E0,-9.028589E-6,4.40535E-2,5.93375E-2,5.0296E-2,-2.532561E-6,1.124084E-5,4.6553736E0,-1.5009886E-1,-8.8898316E-2,3.716766E-2,-1.2982109E-1,-1.5012965E-1,-1.193375E-1,8.5274324E-2,-1.271442E-1,1.3018343E-1,-1.0363806E-1,-8.920634E-2,1.4348182E-1,9.506202E-1,-2.4893485E-2,-8.277122E-2,-2.5482697E-2,-5.3584296E-2,3.0765528E-2,6.38638E-2,1.293227E-1,1.3478415E-3,4.3201216E-2,3.2985236E-2,-8.801215E-2,9.852146E-1,1.1522999E-1,-4.979844E-2,-1.4916147E-1,-1.4958356E-1,1.0440517E-1],"split_indices":[6,6,6,6,6,6,6,6,3,0,1,6,6,0,3,0,0,9,2,2,0,2,0,5,4,2,2,2,8,6,5,0,0,0,0,0,0,0,0,0,0,0,0,0,0,0,0,0,0,0,0,0,0,0,0,0,0,0,0,0,0],"split_type":[0,0,0,0,0,0,0,0,0,0,0,0,0,0,0,0,0,0,0,0,0,0,0,0,0,0,0,0,0,0,0,0,0,0,0,0,0,0,0,0,0,0,0,0,0,0,0,0,0,0,0,0,0,0,0,0,0,0,0,0,0],"sum_hessian":[1.1426734E5,2.1996941E4,9.227041E4,1.807648E4,3.9204624E3,7.4261055E4,1.8009354E4,1.4693118E4,3.383361E3,2.3052422E3,1.6152202E3,2.225993E4,5.200112E4,4.4554385E3,1.3553915E4,1.0960287E4,3.7328315E3,2.5688306E3,8.1453064E2,1.237992E3,1.0672502E3,1.526893E3,8.832727E1,4.2475713E3,1.801236E4,3.1490559E4,2.0510564E4,4.3911045E3,6.433363E1,8.0627924E2,1.2747636E4,3.6965225E3,3.6308983E1,1.3647573E1,2.5551829E3,7.570898E2,5.744087E1,5.8100834E0,1.2321819E3,1.4084791E1,1.0531655E3,1.5176493E3,9.243673E0,1.5705621E0,8.6756714E1,5.3311334E2,3.714458E3,9.7535626E2,1.7037004E4,4.0895693E3,2.7400988E4,6.4384946E3,1.4072069E4,3.4164752E2,4.0494573E3,5.1104603E0,5.922317E1,4.200152E2,3.8626404E2,1.2724917E4,2.271849E1],"tree_param":{"num_deleted":"0","num_feature":"10","num_nodes":"61","size_leaf_vector":"0"}},{"base_weights":[-3.980793E-2,-4.812668E-1,3.4394726E-1,-5.053839E-1,-2.2152287E-1,9.9693626E-2,5.0248665E-1,-5.146725E-1,-4.395009E-1,2.9684268E-2,-2.517385E-1,4.809684E-2,2.0477262E-1,4.0028477E-1,5.293954E-1,-5.1923627E-1,-4.9369502E-1,-3.5039544E-1,-4.5942527E-1,-5.936165E-2,4.7202978E-1,-3.1610098E-1,-1.3584273E-1,-1.18850015E-1,7.427454E-2,2.4646753E-1,9.199394E-2,1.4290194E-1,4.2169872E-1,3.9120254E-1,5.341626E-1,-5.1973766E-1,-3.5137865E-1,-4.0805024E-1,-5.0260204E-1,-3.665E-1,1.051378E0,-5.019922E-1,-3.9556986E-1,5.0555605E-1,-1.376158E-1,2.9742346E0,1.8234454E-1,-3.304544E-1,8.034897E-2,2.3828342E0,-1.4026335E-1,-4.6583614E-1,-8.9341395E-2,1.0086244E-1,-1.261775E-1,1.2079702E-1,3.0032396E-1,3.759091E-2,5.1535314E-1,1.9722357E-1,-2.72561E0,4.6526337E-1,2.7397004E-1,2.341774E-1,5.3964335E-1,5.343645E-1,-1.7995588E0],"categories":[],"categories_nodes":[],"categories_segments":[],"categories_sizes":[],"default_left":[1,1,1,1,1,1,1,1,1,1,1,1,1,1,1,1,1,1,1,1,1,1,1,1,1,1,1,1,1,1,1,0,0,0,0,0,0,0,0,0,0,0,0,0,0,0,0,0,0,0,0,0,0,0,0,0,0,0,0,0,0,0,0],"id":23,"left_children":[1,3,5,7,9,11,13,15,17,19,21,23,25,27,29,31,33,35,37,39,41,43,45,47,49,51,53,55,57,59,61,-1,-1,-1,-1,-1,-1,-1,-1,-1,-1,-1,-1,-1,-1,-1,-1,-1,-1,-1,-1,-1,-1,-1,-1,-1,-1,-1,-1,-1,-1,-1,-1],"loss_changes":[1.67219E4,2.8742773E2,2.0447153E3,2.5475586E1,2.96223E1,1.1268007E2,8.784717E1,3.2675781E0,9.0651245E0,1.6563627E1,2.593666E1,6.0935997E1,3.216266E1,3.6743652E1,1.6486816E1,2.3598633E0,4.8272705E0,2.1918968E1,1.133667E1,1.5557264E1,5.0529602E1,1.2764572E1,1.4199755E1,1.9311214E1,6.424582E1,3.3781067E1,4.256828E1,8.069365E1,3.954358E1,1.9659119E1,1.2505859E1,0E0,0E0,0E0,0E0,0E0,0E0,0E0,0E0,0E0,0E0,0E0,0E0,0E0,0E0,0E0,0E0,0E0,0E0,0E0,0E0,0E0,0E0,0E0,0E0,0E0,0E0,0E0,0E0,0E0,0E0,0E0,0E0],"parents":[2147483647,0,0,1,1,2,2,3,3,4,4,5,5,6,6,7,7,8,8,9,9,10,10,11,11,12,12,13,13,14,14,15,15,16,16,17,17,18,18,19,19,20,20,21,21,22,22,23,23,24,24,25,25,26,26,27,27,28,28,29,29,30,30],"right_children":[2,4,6,8,10,12,14,16,18,20,22,24,26,28,30,32,34,36,38,40,42,44,46,48,50,52,54,56,58,60,62,-1,-1,-1,-1,-1,-1,-1,-1,-1,-1,-1,-1,-1,-1,-1,-1,-1,-1,-1,-1,-1,-1,-1,-1,-1,-1,-1,-1,-1,-1,-1,-1],"split_conditions":[7.4901454E-6,7.1552577E-6,8.256677E-6,6.667832E-6,4.1614503E-2,7.9650235E-6,8.803547E-6,6.1271217E-6,5.8859363E-2,3.75095E-2,7.383612E-6,-1.0170493E0,2.43612E3,5.0296E-2,9.0243005E2,2.7499123E-6,1.10072E3,5.84805E-2,3.2547436E4,6.345645E3,1.2226799E3,4.2881953E3,1.0530701E3,-2.3222332E0,1.1763077E0,2.325161E4,8.2210496E-2,2.8139523E-6,2.53024E3,1.1240869E-5,6.5064695E4,-1.5592131E-1,-1.054136E-1,-1.2241507E-1,-1.5078062E-1,-1.0995E-1,3.1541342E-1,-1.5059768E-1,-1.1867096E-1,1.5166682E-1,-4.128474E-2,8.922704E-1,5.4703366E-2,-9.913633E-2,2.4104692E-2,7.148503E-1,-4.2079005E-2,-1.3975085E-1,-2.6802419E-2,3.0258734E-2,-3.7853252E-2,3.623911E-2,9.009719E-2,1.1277273E-2,1.5460595E-1,5.9167076E-2,-8.1768304E-1,1.3957901E-1,8.219101E-2,7.025322E-2,1.6189301E-1,1.6030936E-1,-5.3986764E-1],"split_indices":[6,6,6,6,2,6,6,6,3,2,6,5,1,2,1,9,1,2,0,0,1,1,1,5,5,0,2,9,1,6,0,0,0,0,0,0,0,0,0,0,0,0,0,0,0,0,0,0,0,0,0,0,0,0,0,0,0,0,0,0,0,0,0],"split_type":[0,0,0,0,0,0,0,0,0,0,0,0,0,0,0,0,0,0,0,0,0,0,0,0,0,0,0,0,0,0,0,0,0,0,0,0,0,0,0,0,0,0,0,0,0,0,0,0,0,0,0,0,0,0,0,0,0,0,0,0,0,0,0],"sum_hessian":[9.870346E4,4.5900656E4,5.2802805E4,4.200003E4,3.9006274E3,2.0783832E4,3.201897E4,3.680432E4,5.1957114E3,4.18802E2,3.4818254E3,1.3940236E4,6.843596E3,6.6765776E3,2.5342393E4,3.0208525E4,6.595794E3,